Time,mass A x axis,mass B x axis
0E+00,-2.07305E-02,2.155112E-02
3.333672E-02,-2.073213E-02,2.154886E-02
6.667345E-02,-2.073143E-02,2.154749E-02
1.000102E-01,-2.073035E-02,2.155061E-02
1.333469E-01,-2.07281E-02,2.155338E-02
1.666836E-01,-2.073687E-02,2.154446E-02
2.000203E-01,-2.073455E-02,2.153924E-02
2.333571E-01,-2.073559E-02,2.154486E-02
2.666938E-01,-2.073575E-02,2.15482E-02
3.000305E-01,-2.073327E-02,2.154912E-02
3.333672E-01,-2.073209E-02,2.154935E-02
3.66704E-01,-2.072816E-02,2.15492E-02
4.000407E-01,-2.073202E-02,2.154944E-02
4.333774E-01,-2.072666E-02,2.155518E-02
4.667141E-01,-2.072269E-02,2.155866E-02
5.000509E-01,-2.073235E-02,2.15519E-02
5.333876E-01,-2.073823E-02,2.15475E-02
5.667243E-01,-2.073468E-02,2.154846E-02
6.00061E-01,-2.073283E-02,2.154891E-02
6.333978E-01,-2.073405E-02,2.154786E-02
6.667345E-01,-2.073439E-02,2.154674E-02
7.000712E-01,-2.073503E-02,2.154679E-02
7.334079E-01,-2.073564E-02,2.154737E-02
7.667446E-01,-2.073263E-02,2.154832E-02
8.000814E-01,-2.073087E-02,2.154884E-02
8.334181E-01,-2.073219E-02,2.155038E-02
8.667548E-01,-2.07326E-02,2.155084E-02
9.000915E-01,-2.073309E-02,2.154823E-02
9.334283E-01,-2.073367E-02,2.154609E-02
9.66765E-01,-2.074442E-02,2.154935E-02
1.000102E+00,-2.073159E-02,2.155147E-02
1.033438E+00,-2.073176E-02,2.155492E-02
1.066775E+00,-2.073457E-02,2.155601E-02
1.100112E+00,-2.073059E-02,2.155506E-02
1.133449E+00,-2.07282E-02,2.155376E-02
1.166785E+00,-2.072988E-02,2.155414E-02
1.200122E+00,-2.072521E-02,2.155365E-02
1.233459E+00,-2.073158E-02,2.154847E-02
1.266796E+00,-2.073549E-02,2.154483E-02
1.300132E+00,-2.074135E-02,2.154252E-02
1.333469E+00,-2.07396E-02,2.153897E-02
1.366806E+00,-2.073959E-02,2.154674E-02
1.400142E+00,-2.073961E-02,2.155306E-02
1.433479E+00,-2.074068E-02,2.154749E-02
1.466816E+00,-2.07421E-02,2.156344E-02
1.500153E+00,-2.073427E-02,2.156555E-02
1.533489E+00,-2.072936E-02,2.156672E-02
1.566826E+00,-2.073029E-02,2.15711E-02
1.600163E+00,-1.893735E-02,2.157347E-02
1.633499E+00,-1.638473E-02,2.174528E-02
1.666836E+00,-1.533067E-02,2.222121E-02
1.700173E+00,-1.591228E-02,2.302179E-02
1.73351E+00,-1.790651E-02,2.37746E-02
1.766846E+00,-2.057417E-02,2.408442E-02
1.800183E+00,-2.307154E-02,2.373813E-02
1.83352E+00,-2.480217E-02,2.260388E-02
1.866857E+00,-2.52948E-02,2.09617E-02
1.900193E+00,-2.457452E-02,1.916089E-02
1.93353E+00,-2.291184E-02,1.784787E-02
1.966867E+00,-2.083878E-02,1.750823E-02
2.000203E+00,-1.913743E-02,1.836788E-02
2.03354E+00,-1.826784E-02,2.043774E-02
2.066877E+00,-1.827187E-02,2.305219E-02
2.100214E+00,-1.89161E-02,2.540824E-02
2.13355E+00,-1.99177E-02,2.673579E-02
2.166887E+00,-2.075076E-02,2.673813E-02
2.200224E+00,-2.131234E-02,2.531461E-02
2.23356E+00,-2.148311E-02,2.282766E-02
2.266897E+00,-2.13885E-02,1.984258E-02
2.300234E+00,-2.12262E-02,1.735086E-02
2.333571E+00,-2.129725E-02,1.615184E-02
2.366907E+00,-2.168584E-02,1.656625E-02
2.400244E+00,-2.224464E-02,1.844947E-02
2.433581E+00,-2.257881E-02,2.113502E-02
2.466918E+00,-2.246984E-02,2.378844E-02
2.500254E+00,-2.171563E-02,2.568982E-02
2.533591E+00,-2.039158E-02,2.637106E-02
2.566928E+00,-1.894493E-02,2.571248E-02
2.600264E+00,-1.770308E-02,2.400678E-02
2.633601E+00,-1.726483E-02,2.180269E-02
2.666938E+00,-1.791115E-02,1.981013E-02
2.700275E+00,-1.962218E-02,1.858313E-02
2.733611E+00,-2.199093E-02,1.841293E-02
2.766948E+00,-2.409934E-02,1.909929E-02
2.800285E+00,-2.553055E-02,2.025437E-02
2.833622E+00,-2.561965E-02,2.14562E-02
2.866958E+00,-2.440537E-02,2.236915E-02
2.900295E+00,-2.206475E-02,2.281328E-02
2.933632E+00,-1.920212E-02,2.279988E-02
2.966968E+00,-1.680873E-02,2.252126E-02
3.000305E+00,-1.547006E-02,2.229683E-02
3.033642E+00,-1.573792E-02,2.227301E-02
3.066979E+00,-1.756738E-02,2.243863E-02
3.100315E+00,-2.028159E-02,2.263205E-02
3.133652E+00,-2.304238E-02,2.250422E-02
3.166989E+00,-2.505548E-02,2.194141E-02
3.200325E+00,-2.579173E-02,2.10029E-02
3.233662E+00,-2.519722E-02,1.989379E-02
3.266999E+00,-2.331712E-02,1.899586E-02
3.300336E+00,-2.099256E-02,1.860397E-02
3.333672E+00,-1.879006E-02,1.910609E-02
3.367009E+00,-1.740705E-02,2.05393E-02
3.400346E+00,-1.72022E-02,2.260884E-02
3.433683E+00,-1.80133E-02,2.458108E-02
3.467019E+00,-1.941653E-02,2.590283E-02
3.500356E+00,-2.096668E-02,2.603976E-02
3.533693E+00,-2.210703E-02,2.49446E-02
3.567029E+00,-2.267086E-02,2.281871E-02
3.600366E+00,-2.259941E-02,2.013339E-02
3.633703E+00,-2.208673E-02,1.775937E-02
3.66704E+00,-2.14771E-02,1.642701E-02
3.700376E+00,-2.103988E-02,1.660115E-02
3.733713E+00,-2.099278E-02,1.830796E-02
3.76705E+00,-2.113263E-02,2.098513E-02
3.800387E+00,-2.119887E-02,2.371988E-02
3.833723E+00,-2.095267E-02,2.582078E-02
3.86706E+00,-2.041517E-02,2.66812E-02
3.900397E+00,-1.965516E-02,2.616595E-02
3.933733E+00,-1.885737E-02,2.439979E-02
3.96707E+00,-1.842484E-02,2.200966E-02
4.000407E+00,-1.867923E-02,1.955622E-02
4.033744E+00,-1.97658E-02,1.795928E-02
4.06708E+00,-2.148603E-02,1.7577E-02
4.100417E+00,-2.332551E-02,1.833425E-02
4.133754E+00,-2.457057E-02,1.985163E-02
4.16709E+00,-2.483927E-02,2.160356E-02
4.200427E+00,-2.397661E-02,2.310476E-02
4.233764E+00,-2.209915E-02,2.390917E-02
4.267101E+00,-1.961963E-02,2.399875E-02
4.300437E+00,-1.742812E-02,2.345224E-02
4.333774E+00,-1.596734E-02,2.26078E-02
4.367111E+00,-1.59628E-02,2.185102E-02
4.400448E+00,-1.752562E-02,2.142528E-02
4.433784E+00,-2.004252E-02,2.131773E-02
4.467121E+00,-2.273815E-02,2.131026E-02
4.500458E+00,-2.492365E-02,2.127449E-02
4.533794E+00,-2.588561E-02,2.102006E-02
4.567131E+00,-2.549907E-02,2.058254E-02
4.600468E+00,-2.369575E-02,2.014064E-02
4.633805E+00,-2.122105E-02,1.991416E-02
4.667141E+00,-1.870027E-02,2.012471E-02
4.700478E+00,-1.692016E-02,2.097406E-02
4.733815E+00,-1.640792E-02,2.237342E-02
4.767151E+00,-1.722281E-02,2.383123E-02
4.800488E+00,-1.891081E-02,2.490523E-02
4.833825E+00,-2.090932E-02,2.516261E-02
4.867162E+00,-2.261755E-02,2.442494E-02
4.900498E+00,-2.359365E-02,2.276016E-02
4.933835E+00,-2.366586E-02,2.058704E-02
4.967172E+00,-2.299067E-02,1.844188E-02
5.000509E+00,-2.185581E-02,1.710187E-02
5.033845E+00,-2.072798E-02,1.70258E-02
5.067182E+00,-2.004428E-02,1.838941E-02
5.100519E+00,-1.985218E-02,2.082693E-02
5.133855E+00,-2.001305E-02,2.347021E-02
5.167192E+00,-2.027933E-02,2.560913E-02
5.200529E+00,-2.041031E-02,2.665613E-02
5.233866E+00,-2.032565E-02,2.627669E-02
5.267202E+00,-2.007633E-02,2.464183E-02
5.300539E+00,-1.981927E-02,2.219605E-02
5.333876E+00,-1.977909E-02,1.957419E-02
5.367213E+00,-2.022531E-02,1.765234E-02
5.400549E+00,-2.12002E-02,1.697481E-02
5.433886E+00,-2.242789E-02,1.764728E-02
5.467223E+00,-2.339822E-02,1.939728E-02
5.500559E+00,-2.377645E-02,2.154773E-02
5.533896E+00,-2.32416E-02,2.349307E-02
5.567233E+00,-2.184944E-02,2.4664E-02
5.60057E+00,-1.992003E-02,2.491751E-02
5.633906E+00,-1.798272E-02,2.428299E-02
5.667243E+00,-1.668073E-02,2.2986E-02
5.70058E+00,-1.647115E-02,2.160592E-02
5.733916E+00,-1.759714E-02,2.05348E-02
5.767253E+00,-1.976585E-02,2.010313E-02
5.80059E+00,-2.232913E-02,2.011141E-02
5.833927E+00,-2.453574E-02,2.04454E-02
5.867263E+00,-2.562753E-02,2.084872E-02
5.9006E+00,-2.537669E-02,2.111115E-02
5.933937E+00,-2.382154E-02,2.122459E-02
5.967274E+00,-2.152466E-02,2.123944E-02
6.00061E+00,-1.883737E-02,2.124481E-02
6.033947E+00,-1.672912E-02,2.153378E-02
6.067284E+00,-1.601104E-02,2.214745E-02
6.10062E+00,-1.666855E-02,2.300554E-02
6.133957E+00,-1.850014E-02,2.376952E-02
6.167294E+00,-2.081651E-02,2.402247E-02
6.200631E+00,-2.290782E-02,2.357772E-02
6.233967E+00,-2.424135E-02,2.243019E-02
6.267304E+00,-2.452683E-02,2.079829E-02
6.300641E+00,-2.376267E-02,1.910129E-02
6.333978E+00,-2.226578E-02,1.794413E-02
6.367314E+00,-2.059144E-02,1.773305E-02
6.400651E+00,-1.928144E-02,1.870116E-02
6.433988E+00,-1.870584E-02,2.069377E-02
6.467324E+00,-1.880587E-02,2.311515E-02
6.500661E+00,-1.938189E-02,2.512949E-02
6.533998E+00,-2.009278E-02,2.621924E-02
6.567335E+00,-2.071535E-02,2.603656E-02
6.600671E+00,-2.10263E-02,2.461913E-02
6.634008E+00,-2.101665E-02,2.232482E-02
6.667345E+00,-2.088069E-02,1.974069E-02
6.700681E+00,-2.082121E-02,1.768903E-02
6.734018E+00,-2.109851E-02,1.680898E-02
6.767355E+00,-2.164566E-02,1.734923E-02
6.800692E+00,-2.227989E-02,1.911642E-02
6.834028E+00,-2.259828E-02,2.148918E-02
6.867365E+00,-2.241946E-02,2.375006E-02
6.900702E+00,-2.156229E-02,2.525298E-02
6.934039E+00,-2.026559E-02,2.565963E-02
6.967375E+00,-1.883029E-02,2.499302E-02
7.000712E+00,-1.770873E-02,2.342215E-02
7.034049E+00,-1.736537E-02,2.155661E-02
7.067385E+00,-1.809444E-02,1.994757E-02
7.100722E+00,-1.983384E-02,1.909833E-02
7.134059E+00,-2.191815E-02,1.907479E-02
7.167396E+00,-2.398021E-02,1.967438E-02
7.200732E+00,-2.507094E-02,2.063604E-02
7.234069E+00,-2.507814E-02,2.152502E-02
7.267406E+00,-2.383703E-02,2.216684E-02
7.300742E+00,-2.171084E-02,2.245124E-02
7.334079E+00,-1.916228E-02,2.240921E-02
7.367416E+00,-1.69861E-02,2.223758E-02
7.400753E+00,-1.600028E-02,2.21692E-02
7.434089E+00,-1.642338E-02,2.238868E-02
7.467426E+00,-1.813176E-02,2.265391E-02
7.500763E+00,-2.059518E-02,2.284862E-02
7.5341E+00,-2.294077E-02,2.268655E-02
7.567436E+00,-2.451797E-02,2.204316E-02
7.600773E+00,-2.504068E-02,2.105503E-02
7.63411E+00,-2.44164E-02,1.99211E-02
7.667446E+00,-2.274842E-02,1.904002E-02
7.700783E+00,-2.068434E-02,1.87725E-02
7.73412E+00,-1.889107E-02,1.935746E-02
7.767457E+00,-1.789038E-02,2.078645E-02
7.800793E+00,-1.785024E-02,2.271579E-02
7.83413E+00,-1.861785E-02,2.452734E-02
7.867467E+00,-1.985282E-02,2.563063E-02
7.900804E+00,-2.105143E-02,2.562064E-02
7.93414E+00,-2.185673E-02,2.452356E-02
7.967477E+00,-2.219232E-02,2.254689E-02
8.000814E+00,-2.205658E-02,2.011547E-02
8.03415E+00,-2.163146E-02,1.799348E-02
8.067487E+00,-2.124312E-02,1.697623E-02
8.100824E+00,-2.111656E-02,1.725608E-02
8.134161E+00,-2.122686E-02,1.886745E-02
8.167497E+00,-2.141379E-02,2.128215E-02
8.200834E+00,-2.143387E-02,2.368682E-02
8.234171E+00,-2.112055E-02,2.540757E-02
8.267507E+00,-2.046628E-02,2.598662E-02
8.300844E+00,-1.962033E-02,2.541156E-02
8.334181E+00,-1.883783E-02,2.375809E-02
8.367518E+00,-1.845223E-02,2.163946E-02
8.400854E+00,-1.878713E-02,1.962955E-02
8.434191E+00,-1.987734E-02,1.840165E-02
8.467528E+00,-2.155041E-02,1.820676E-02
8.500865E+00,-2.32452E-02,1.895405E-02
8.534201E+00,-2.431258E-02,2.03014E-02
8.567538E+00,-2.443769E-02,2.177607E-02
8.600875E+00,-2.355422E-02,2.291432E-02
8.634211E+00,-2.177847E-02,2.346297E-02
8.667548E+00,-1.945781E-02,2.345672E-02
8.700885E+00,-1.750783E-02,2.295386E-02
8.734222E+00,-1.632771E-02,2.231716E-02
8.767558E+00,-1.655676E-02,2.182064E-02
8.800895E+00,-1.802459E-02,2.158286E-02
8.834232E+00,-2.031891E-02,2.15761E-02
8.867569E+00,-2.269474E-02,2.157326E-02
8.900905E+00,-2.452881E-02,2.144011E-02
8.934242E+00,-2.52514E-02,2.107541E-02
8.967579E+00,-2.469489E-02,2.058425E-02
9.000915E+00,-2.304627E-02,2.008944E-02
9.034252E+00,-2.087142E-02,1.981265E-02
9.067589E+00,-1.871719E-02,2.006555E-02
9.100926E+00,-1.727322E-02,2.095817E-02
9.134262E+00,-1.707842E-02,2.235115E-02
9.167599E+00,-1.791656E-02,2.377178E-02
9.200936E+00,-1.943953E-02,2.46993E-02
9.234272E+00,-2.112029E-02,2.482874E-02
9.267609E+00,-2.246852E-02,2.403949E-02
9.300946E+00,-2.313671E-02,2.238515E-02
9.334283E+00,-2.30974E-02,2.039124E-02
9.367619E+00,-2.241548E-02,1.84952E-02
9.400956E+00,-2.145689E-02,1.742082E-02
9.434293E+00,-2.06277E-02,1.749403E-02
9.46763E+00,-2.018615E-02,1.887825E-02
9.500966E+00,-2.015945E-02,2.106178E-02
9.534303E+00,-2.031048E-02,2.344488E-02
9.56764E+00,-2.047699E-02,2.529276E-02
9.600976E+00,-2.044828E-02,2.601808E-02
9.634313E+00,-2.022445E-02,2.557758E-02
9.66765E+00,-1.986375E-02,2.40229E-02
9.700987E+00,-1.961796E-02,2.177841E-02
9.734323E+00,-1.967445E-02,1.957933E-02
9.76766E+00,-2.020954E-02,1.803696E-02
9.800997E+00,-2.121534E-02,1.764806E-02
9.834334E+00,-2.241921E-02,1.836962E-02
9.86767E+00,-2.331715E-02,1.996825E-02
9.901007E+00,-2.359068E-02,2.180365E-02
9.934344E+00,-2.301906E-02,2.339909E-02
9.96768E+00,-2.169137E-02,2.4286E-02
1.000102E+01,-1.985423E-02,2.433443E-02
1.003435E+01,-1.81038E-02,2.365022E-02
1.006769E+01,-1.699144E-02,2.25532E-02
1.010103E+01,-1.698289E-02,2.14396E-02
1.013436E+01,-1.810398E-02,2.067017E-02
1.01677E+01,-2.012887E-02,2.042585E-02
1.020104E+01,-2.2446E-02,2.053484E-02
1.023437E+01,-2.433122E-02,2.08408E-02
1.026771E+01,-2.512912E-02,2.109244E-02
1.030105E+01,-2.476721E-02,2.121186E-02
1.033438E+01,-2.324154E-02,2.116804E-02
1.036772E+01,-2.104536E-02,2.10682E-02
1.040106E+01,-1.878235E-02,2.1066E-02
1.043439E+01,-1.711695E-02,2.138457E-02
1.046773E+01,-1.659237E-02,2.212182E-02
1.050107E+01,-1.734494E-02,2.297142E-02
1.05344E+01,-1.903456E-02,2.369353E-02
1.056774E+01,-2.104392E-02,2.391958E-02
1.060108E+01,-2.278255E-02,2.340677E-02
1.063441E+01,-2.379555E-02,2.229676E-02
1.066775E+01,-2.389055E-02,2.07069E-02
1.070109E+01,-2.310386E-02,1.916435E-02
1.073443E+01,-2.179466E-02,1.813202E-02
1.076776E+01,-2.046662E-02,1.807118E-02
1.08011E+01,-1.942041E-02,1.905729E-02
1.083444E+01,-1.905652E-02,2.094804E-02
1.086777E+01,-1.927467E-02,2.313256E-02
1.090111E+01,-1.977316E-02,2.492592E-02
1.093445E+01,-2.031133E-02,2.583019E-02
1.096778E+01,-2.072291E-02,2.551042E-02
1.100112E+01,-2.08515E-02,2.410575E-02
1.103446E+01,-2.078348E-02,2.197613E-02
1.106779E+01,-2.061471E-02,1.968153E-02
1.110113E+01,-2.065902E-02,1.797375E-02
1.113447E+01,-2.09985E-02,1.735392E-02
1.11678E+01,-2.163065E-02,1.798536E-02
1.120114E+01,-2.226441E-02,1.96466E-02
1.123448E+01,-2.252871E-02,2.173089E-02
1.126781E+01,-2.225861E-02,2.3619E-02
1.130115E+01,-2.14391E-02,2.478591E-02
1.133449E+01,-2.009495E-02,2.504451E-02
1.136782E+01,-1.874627E-02,2.430633E-02
1.140116E+01,-1.774975E-02,2.292579E-02
1.14345E+01,-1.755622E-02,2.1312E-02
1.146783E+01,-1.834735E-02,2.005951E-02
1.150117E+01,-2.000178E-02,1.948495E-02
1.153451E+01,-2.207564E-02,1.956207E-02
1.156784E+01,-2.379838E-02,2.012136E-02
1.160118E+01,-2.471003E-02,2.091047E-02
1.163452E+01,-2.455574E-02,2.158779E-02
1.166785E+01,-2.329277E-02,2.199067E-02
1.170119E+01,-2.1284E-02,2.209307E-02
1.173453E+01,-1.903573E-02,2.203031E-02
1.176786E+01,-1.721985E-02,2.194837E-02
1.18012E+01,-1.651235E-02,2.201672E-02
1.183454E+01,-1.707379E-02,2.22722E-02
1.186787E+01,-1.871524E-02,2.263454E-02
1.190121E+01,-2.090599E-02,2.280328E-02
1.193455E+01,-2.2865E-02,2.262406E-02
1.196788E+01,-2.415666E-02,2.197182E-02
1.200122E+01,-2.442266E-02,2.096763E-02
1.203456E+01,-2.369452E-02,1.987763E-02
1.206789E+01,-2.216676E-02,1.908448E-02
1.210123E+01,-2.045576E-02,1.890545E-02
1.213457E+01,-1.895368E-02,1.957909E-02
1.21679E+01,-1.826599E-02,2.101754E-02
1.220124E+01,-1.837511E-02,2.280157E-02
1.223458E+01,-1.910369E-02,2.438593E-02
1.226791E+01,-2.015592E-02,2.527816E-02
1.230125E+01,-2.109761E-02,2.515812E-02
1.233459E+01,-2.172857E-02,2.399806E-02
1.236792E+01,-2.186804E-02,2.211744E-02
1.240126E+01,-2.165816E-02,1.993134E-02
1.24346E+01,-2.130099E-02,1.820489E-02
1.246793E+01,-2.102788E-02,1.738074E-02
1.250127E+01,-2.101848E-02,1.780917E-02
1.253461E+01,-2.12321E-02,1.943925E-02
1.256794E+01,-2.145319E-02,2.155107E-02
1.260128E+01,-2.14371E-02,2.360096E-02
1.263462E+01,-2.110182E-02,2.499599E-02
1.266796E+01,-2.039835E-02,2.537485E-02
1.270129E+01,-1.956899E-02,2.469036E-02
1.273463E+01,-1.879848E-02,2.317181E-02
1.276797E+01,-1.853201E-02,2.130962E-02
1.28013E+01,-1.894219E-02,1.96384E-02
1.283464E+01,-2.006286E-02,1.872201E-02
1.286798E+01,-2.161963E-02,1.868691E-02
1.290131E+01,-2.3158E-02,1.94532E-02
1.293465E+01,-2.406548E-02,2.064169E-02
1.296799E+01,-2.406274E-02,2.182697E-02
1.300132E+01,-2.306347E-02,2.270672E-02
1.303466E+01,-2.135168E-02,2.305123E-02
1.3068E+01,-1.93226E-02,2.29545E-02
1.310133E+01,-1.761947E-02,2.250055E-02
1.313467E+01,-1.673594E-02,2.198821E-02
1.316801E+01,-1.707873E-02,2.167574E-02
1.320134E+01,-1.854215E-02,2.161896E-02
1.323468E+01,-2.062283E-02,2.163369E-02
1.326802E+01,-2.271817E-02,2.168288E-02
1.330135E+01,-2.424087E-02,2.152019E-02
1.333469E+01,-2.470269E-02,2.111476E-02
1.336803E+01,-2.40866E-02,2.05568E-02
1.340136E+01,-2.251534E-02,2.005327E-02
1.34347E+01,-2.051084E-02,1.98464E-02
1.346804E+01,-1.869194E-02,2.014898E-02
1.350137E+01,-1.766512E-02,2.107134E-02
1.353471E+01,-1.758696E-02,2.237088E-02
1.356805E+01,-1.84426E-02,2.364703E-02
1.360138E+01,-1.978466E-02,2.444652E-02
1.363472E+01,-2.121618E-02,2.446561E-02
1.366806E+01,-2.227407E-02,2.363087E-02
1.370139E+01,-2.274166E-02,2.205492E-02
1.373473E+01,-2.259004E-02,2.021894E-02
1.376807E+01,-2.196005E-02,1.857224E-02
1.38014E+01,-2.11742E-02,1.772679E-02
1.383474E+01,-2.057523E-02,1.799755E-02
1.386808E+01,-2.033391E-02,1.933974E-02
1.390141E+01,-2.035716E-02,2.143978E-02
1.393475E+01,-2.052867E-02,2.345765E-02
1.396809E+01,-2.064974E-02,2.498829E-02
1.400142E+01,-2.049934E-02,2.551689E-02
1.403476E+01,-2.017595E-02,2.495132E-02
1.40681E+01,-1.980673E-02,2.343044E-02
1.410143E+01,-1.952464E-02,2.146481E-02
1.413477E+01,-1.962827E-02,1.952883E-02
1.416811E+01,-2.022017E-02,1.829337E-02
1.420144E+01,-2.12448E-02,1.812294E-02
1.423478E+01,-2.236828E-02,1.892501E-02
1.426812E+01,-2.318655E-02,2.037781E-02
1.430145E+01,-2.333908E-02,2.195521E-02
1.433479E+01,-2.269951E-02,2.322763E-02
1.436813E+01,-2.143159E-02,2.384923E-02
1.440146E+01,-1.970247E-02,2.383158E-02
1.44348E+01,-1.813846E-02,2.319197E-02
1.446814E+01,-1.722392E-02,2.221908E-02
1.450147E+01,-1.732618E-02,2.134559E-02
1.453481E+01,-1.84904E-02,2.078047E-02
1.456815E+01,-2.041549E-02,2.063021E-02
1.460148E+01,-2.246297E-02,2.074764E-02
1.463482E+01,-2.404974E-02,2.098578E-02
1.466816E+01,-2.464033E-02,2.11258E-02
1.47015E+01,-2.420715E-02,2.113874E-02
1.473483E+01,-2.271446E-02,2.100634E-02
1.476817E+01,-2.076212E-02,2.087768E-02
1.480151E+01,-1.876593E-02,2.095081E-02
1.483484E+01,-1.745436E-02,2.136265E-02
1.486818E+01,-1.71895E-02,2.211762E-02
1.490152E+01,-1.79947E-02,2.294905E-02
1.493485E+01,-1.958254E-02,2.357823E-02
1.496819E+01,-2.133116E-02,2.372267E-02
1.500153E+01,-2.269327E-02,2.31923E-02
1.503486E+01,-2.341068E-02,2.208875E-02
1.50682E+01,-2.338005E-02,2.064027E-02
1.510154E+01,-2.259992E-02,1.922788E-02
1.513487E+01,-2.148562E-02,1.836981E-02
1.516821E+01,-2.03316E-02,1.84263E-02
1.520155E+01,-1.958772E-02,1.950912E-02
1.523488E+01,-1.941189E-02,2.1286E-02
1.526822E+01,-1.963528E-02,2.318601E-02
1.530156E+01,-2.008003E-02,2.469532E-02
1.533489E+01,-2.050935E-02,2.535642E-02
1.536823E+01,-2.074208E-02,2.496407E-02
1.540157E+01,-2.073957E-02,2.357688E-02
1.54349E+01,-2.059053E-02,2.163134E-02
1.546824E+01,-2.048293E-02,1.9642E-02
1.550158E+01,-2.058441E-02,1.822776E-02
1.553491E+01,-2.100979E-02,1.78665E-02
1.556825E+01,-2.16617E-02,1.861149E-02
1.560159E+01,-2.222755E-02,2.01354E-02
1.563492E+01,-2.247346E-02,2.199516E-02
1.566826E+01,-2.215526E-02,2.356418E-02
1.57016E+01,-2.12755E-02,2.444614E-02
1.573493E+01,-2.004078E-02,2.448154E-02
1.576827E+01,-1.880456E-02,2.378669E-02
1.580161E+01,-1.799126E-02,2.249403E-02
1.583494E+01,-1.793164E-02,2.114425E-02
1.586828E+01,-1.874026E-02,2.016239E-02
1.590162E+01,-2.027899E-02,1.978994E-02
1.593495E+01,-2.209242E-02,1.995787E-02
1.596829E+01,-2.360769E-02,2.047149E-02
1.600163E+01,-2.432608E-02,2.110068E-02
1.603496E+01,-2.402562E-02,2.161818E-02
1.60683E+01,-2.27592E-02,2.186187E-02
1.610164E+01,-2.086876E-02,2.187233E-02
1.613497E+01,-1.887176E-02,2.178101E-02
1.616831E+01,-1.742795E-02,2.177933E-02
1.620165E+01,-1.699409E-02,2.1909E-02
1.623498E+01,-1.77107E-02,2.228626E-02
1.626832E+01,-1.91948E-02,2.262143E-02
1.630166E+01,-2.110983E-02,2.278459E-02
1.633499E+01,-2.284919E-02,2.253617E-02
1.636833E+01,-2.38522E-02,2.186178E-02
1.640167E+01,-2.39204E-02,2.088066E-02
1.6435E+01,-2.314546E-02,1.985714E-02
1.646834E+01,-2.173476E-02,1.918322E-02
1.650168E+01,-2.019441E-02,1.911635E-02
1.653501E+01,-1.902754E-02,1.981715E-02
1.656835E+01,-1.854398E-02,2.117852E-02
1.660169E+01,-1.87629E-02,2.280981E-02
1.663503E+01,-1.947998E-02,2.41811E-02
1.666836E+01,-2.040665E-02,2.488076E-02
1.67017E+01,-2.113879E-02,2.463381E-02
1.673504E+01,-2.157193E-02,2.352365E-02
1.676837E+01,-2.161503E-02,2.173408E-02
1.680171E+01,-2.136912E-02,1.979487E-02
1.683505E+01,-2.109158E-02,1.832069E-02
1.686838E+01,-2.095486E-02,1.777962E-02
1.690172E+01,-2.106164E-02,1.834475E-02
1.693506E+01,-2.130168E-02,1.985003E-02
1.696839E+01,-2.151555E-02,2.179635E-02
1.700173E+01,-2.146172E-02,2.35591E-02
1.703507E+01,-2.104924E-02,2.468256E-02
1.70684E+01,-2.032333E-02,2.489525E-02
1.710174E+01,-1.952307E-02,2.415471E-02
1.713508E+01,-1.88376E-02,2.275332E-02
1.716841E+01,-1.865709E-02,2.11091E-02
1.720175E+01,-1.911419E-02,1.976468E-02
1.723509E+01,-2.021882E-02,1.909031E-02
1.726842E+01,-2.166898E-02,1.919766E-02
1.730176E+01,-2.304252E-02,1.994675E-02
1.73351E+01,-2.378331E-02,2.098998E-02
1.736843E+01,-2.367659E-02,2.200606E-02
1.740177E+01,-2.271805E-02,2.265261E-02
1.743511E+01,-2.108412E-02,2.286069E-02
1.746844E+01,-1.92717E-02,2.26917E-02
1.750178E+01,-1.777286E-02,2.230227E-02
1.753512E+01,-1.714371E-02,2.190883E-02
1.756845E+01,-1.761142E-02,2.176535E-02
1.760179E+01,-1.906939E-02,2.178319E-02
1.763513E+01,-2.098598E-02,2.186591E-02
1.766846E+01,-2.281288E-02,2.18491E-02
1.77018E+01,-2.395323E-02,2.159385E-02
1.773514E+01,-2.424307E-02,2.114792E-02
1.776847E+01,-2.356352E-02,2.058773E-02
1.780181E+01,-2.20767E-02,2.011396E-02
1.783515E+01,-2.031919E-02,1.996081E-02
1.786848E+01,-1.882789E-02,2.030275E-02
1.790182E+01,-1.801621E-02,2.12222E-02
1.793516E+01,-1.81084E-02,2.246586E-02
1.796849E+01,-1.893574E-02,2.361813E-02
1.800183E+01,-2.018855E-02,2.427498E-02
1.803517E+01,-2.138984E-02,2.421252E-02
1.80685E+01,-2.221218E-02,2.338124E-02
1.810184E+01,-2.248771E-02,2.187325E-02
1.813518E+01,-2.224922E-02,2.016785E-02
1.816851E+01,-2.165531E-02,1.879742E-02
1.820185E+01,-2.101385E-02,1.815551E-02
1.823519E+01,-2.057698E-02,1.853106E-02
1.826852E+01,-2.045051E-02,1.985514E-02
1.830186E+01,-2.056788E-02,2.17436E-02
1.83352E+01,-2.072991E-02,2.349553E-02
1.836853E+01,-2.075456E-02,2.472481E-02
1.840187E+01,-2.058028E-02,2.50529E-02
1.843521E+01,-2.022082E-02,2.443121E-02
1.846854E+01,-1.981848E-02,2.29879E-02
1.850188E+01,-1.959455E-02,2.12032E-02
1.853522E+01,-1.975643E-02,1.95601E-02
1.856856E+01,-2.04132E-02,1.863497E-02
1.860189E+01,-2.140949E-02,1.863838E-02
1.863523E+01,-2.241968E-02,1.948719E-02
1.866857E+01,-2.305779E-02,2.081566E-02
1.87019E+01,-2.312196E-02,2.218223E-02
1.873524E+01,-2.245801E-02,2.319683E-02
1.876858E+01,-2.11815E-02,2.366078E-02
1.880191E+01,-1.964846E-02,2.34551E-02
1.883525E+01,-1.829714E-02,2.283172E-02
1.886859E+01,-1.756283E-02,2.198533E-02
1.890192E+01,-1.78266E-02,2.126306E-02
1.893526E+01,-1.900156E-02,2.091011E-02
1.89686E+01,-2.075966E-02,2.085263E-02
1.900193E+01,-2.253316E-02,2.101938E-02
1.903527E+01,-2.384164E-02,2.118591E-02
1.906861E+01,-2.422351E-02,2.123968E-02
1.910194E+01,-2.366033E-02,2.12016E-02
1.913528E+01,-2.224043E-02,2.099313E-02
1.916862E+01,-2.045195E-02,2.086652E-02
1.920195E+01,-1.875913E-02,2.097027E-02
1.923529E+01,-1.774956E-02,2.140661E-02
1.926863E+01,-1.76764E-02,2.213996E-02
1.930196E+01,-1.854864E-02,2.290694E-02
1.93353E+01,-1.994524E-02,2.346363E-02
1.936864E+01,-2.148677E-02,2.349304E-02
1.940197E+01,-2.261661E-02,2.293524E-02
1.943531E+01,-2.315408E-02,2.185401E-02
1.946865E+01,-2.29518E-02,2.048606E-02
1.950198E+01,-2.218487E-02,1.930891E-02
1.953532E+01,-2.116151E-02,1.864103E-02
1.956866E+01,-2.022701E-02,1.882641E-02
1.960199E+01,-1.967424E-02,1.988255E-02
1.963533E+01,-1.960466E-02,2.153611E-02
1.966867E+01,-1.989304E-02,2.322513E-02
1.9702E+01,-2.028965E-02,2.450414E-02
1.973534E+01,-2.063632E-02,2.497803E-02
1.976868E+01,-2.074406E-02,2.445081E-02
1.980201E+01,-2.067758E-02,2.310817E-02
1.983535E+01,-2.054142E-02,2.129477E-02
1.986869E+01,-2.047268E-02,1.958854E-02
1.990202E+01,-2.062957E-02,1.848917E-02
1.993536E+01,-2.10616E-02,1.833487E-02
1.99687E+01,-2.165419E-02,1.9097E-02
2.000203E+01,-2.22115E-02,2.052233E-02
2.003537E+01,-2.237784E-02,2.211071E-02
2.006871E+01,-2.200172E-02,2.344136E-02
2.010204E+01,-2.114518E-02,2.410804E-02
2.013538E+01,-1.998196E-02,2.405257E-02
2.016872E+01,-1.887983E-02,2.325024E-02
2.020205E+01,-1.818127E-02,2.209803E-02
2.023539E+01,-1.819746E-02,2.098722E-02
2.026873E+01,-1.907717E-02,2.021238E-02
2.030206E+01,-2.054275E-02,1.99534E-02
2.03354E+01,-2.21853E-02,2.018885E-02
2.036874E+01,-2.347371E-02,2.071349E-02
2.040207E+01,-2.397554E-02,2.126617E-02
2.043541E+01,-2.359084E-02,2.166342E-02
2.046875E+01,-2.233701E-02,2.181388E-02
2.050209E+01,-2.063349E-02,2.178546E-02
2.053542E+01,-1.886462E-02,2.168679E-02
2.056876E+01,-1.767907E-02,2.169777E-02
2.06021E+01,-1.746614E-02,2.189093E-02
2.063543E+01,-1.825424E-02,2.220893E-02
2.066877E+01,-1.968029E-02,2.258472E-02
2.070211E+01,-2.132684E-02,2.270572E-02
2.073544E+01,-2.27587E-02,2.24151E-02
2.076878E+01,-2.351915E-02,2.171605E-02
2.080212E+01,-2.343008E-02,2.08194E-02
2.083545E+01,-2.264746E-02,1.993375E-02
2.086879E+01,-2.13421E-02,1.933744E-02
2.090213E+01,-2.003239E-02,1.937076E-02
2.093546E+01,-1.91296E-02,2.011171E-02
2.09688E+01,-1.882802E-02,2.140807E-02
2.100214E+01,-1.910755E-02,2.288355E-02
2.103547E+01,-1.976945E-02,2.409875E-02
2.106881E+01,-2.054918E-02,2.462981E-02
2.110215E+01,-2.116236E-02,2.432307E-02
2.113548E+01,-2.14517E-02,2.316223E-02
2.116882E+01,-2.14091E-02,2.152049E-02
2.120216E+01,-2.117624E-02,1.984624E-02
2.123549E+01,-2.093191E-02,1.861409E-02
2.126883E+01,-2.084935E-02,1.826583E-02
2.130217E+01,-2.101574E-02,1.893935E-02
2.13355E+01,-2.127479E-02,2.039538E-02
2.136884E+01,-2.147949E-02,2.209517E-02
2.140218E+01,-2.136834E-02,2.359014E-02
2.143551E+01,-2.098444E-02,2.443871E-02
2.146885E+01,-2.029795E-02,2.445385E-02
2.150219E+01,-1.950998E-02,2.362863E-02
2.153552E+01,-1.895258E-02,2.233403E-02
2.156886E+01,-1.887157E-02,2.090517E-02
2.16022E+01,-1.937738E-02,1.978541E-02
2.163553E+01,-2.045656E-02,1.93349E-02
2.166887E+01,-2.18092E-02,1.956235E-02
2.170221E+01,-2.29204E-02,2.025922E-02
2.173554E+01,-2.349871E-02,2.119291E-02
2.176888E+01,-2.328749E-02,2.199743E-02
2.180222E+01,-2.233703E-02,2.250189E-02
2.183555E+01,-2.0811E-02,2.261709E-02
2.186889E+01,-1.917519E-02,2.240738E-02
2.190223E+01,-1.796025E-02,2.205002E-02
2.193556E+01,-1.756509E-02,2.178297E-02
2.19689E+01,-1.815625E-02,2.168585E-02
2.200224E+01,-1.951784E-02,2.175708E-02
2.203557E+01,-2.126515E-02,2.18612E-02
2.206891E+01,-2.281405E-02,2.182965E-02
2.210225E+01,-2.370078E-02,2.157955E-02
2.213558E+01,-2.376755E-02,2.112927E-02
2.216892E+01,-2.300446E-02,2.056727E-02
2.220226E+01,-2.165236E-02,2.017655E-02
2.223559E+01,-2.005555E-02,2.011717E-02
2.226893E+01,-1.885167E-02,2.049116E-02
2.230227E+01,-1.828343E-02,2.135749E-02
2.23356E+01,-1.851787E-02,2.252931E-02
2.236894E+01,-1.934053E-02,2.353065E-02
2.240228E+01,-2.046178E-02,2.408292E-02
2.243562E+01,-2.148067E-02,2.393601E-02
2.246895E+01,-2.211651E-02,2.303996E-02
2.250229E+01,-2.223841E-02,2.165937E-02
2.253563E+01,-2.193859E-02,2.010152E-02
2.256896E+01,-2.139048E-02,1.893154E-02
2.26023E+01,-2.085388E-02,1.848458E-02
2.263564E+01,-2.054775E-02,1.893696E-02
2.266897E+01,-2.05295E-02,2.024445E-02
2.270231E+01,-2.06825E-02,2.192388E-02
2.273565E+01,-2.08313E-02,2.350329E-02
2.276898E+01,-2.083841E-02,2.444245E-02
2.280232E+01,-2.062962E-02,2.459581E-02
2.283566E+01,-2.026218E-02,2.388652E-02
2.286899E+01,-1.988807E-02,2.252105E-02
2.290233E+01,-1.972721E-02,2.090619E-02
2.293567E+01,-1.993653E-02,1.952723E-02
2.2969E+01,-2.055394E-02,1.886375E-02
2.300234E+01,-2.149683E-02,1.899066E-02
2.303568E+01,-2.242053E-02,1.97913E-02
2.306901E+01,-2.292074E-02,2.100556E-02
2.310235E+01,-2.287251E-02,2.220178E-02
2.313569E+01,-2.216896E-02,2.303765E-02
2.316902E+01,-2.0991E-02,2.332819E-02
2.320236E+01,-1.95757E-02,2.307702E-02
2.32357E+01,-1.843608E-02,2.245551E-02
2.326903E+01,-1.790351E-02,2.173887E-02
2.330237E+01,-1.826756E-02,2.116997E-02
2.333571E+01,-1.940689E-02,2.091674E-02
2.336904E+01,-2.099743E-02,2.091937E-02
2.340238E+01,-2.259439E-02,2.108262E-02
2.343572E+01,-2.364395E-02,2.125106E-02
2.346905E+01,-2.381504E-02,2.128432E-02
2.350239E+01,-2.320038E-02,2.116153E-02
2.353573E+01,-2.183582E-02,2.097759E-02
2.356906E+01,-2.016016E-02,2.085414E-02
2.36024E+01,-1.87789E-02,2.099449E-02
2.363574E+01,-1.799336E-02,2.144321E-02
2.366907E+01,-1.807518E-02,2.212317E-02
2.370241E+01,-1.895638E-02,2.284031E-02
2.373575E+01,-2.028661E-02,2.329173E-02
2.376908E+01,-2.164767E-02,2.327806E-02
2.380242E+01,-2.253854E-02,2.270058E-02
2.383576E+01,-2.284406E-02,2.164295E-02
2.386909E+01,-2.261996E-02,2.043323E-02
2.390243E+01,-2.186291E-02,1.937892E-02
2.393577E+01,-2.094541E-02,1.887803E-02
2.39691E+01,-2.019206E-02,1.91357E-02
2.400244E+01,-1.981238E-02,2.019879E-02
2.403578E+01,-1.982784E-02,2.170383E-02
2.406911E+01,-2.007748E-02,2.320674E-02
2.410245E+01,-2.044119E-02,2.422966E-02
2.413579E+01,-2.069915E-02,2.452338E-02
2.416912E+01,-2.077142E-02,2.396592E-02
2.420246E+01,-2.065999E-02,2.266919E-02
2.42358E+01,-2.044984E-02,2.105085E-02
2.426913E+01,-2.041235E-02,1.958445E-02
2.430247E+01,-2.062101E-02,1.871818E-02
2.433581E+01,-2.108556E-02,1.870295E-02
2.436915E+01,-2.168546E-02,1.953808E-02
2.440248E+01,-2.212265E-02,2.08835E-02
2.443582E+01,-2.219259E-02,2.229342E-02
2.446916E+01,-2.181721E-02,2.334905E-02
2.450249E+01,-2.099133E-02,2.382031E-02
2.453583E+01,-1.990316E-02,2.364512E-02
2.456917E+01,-1.894316E-02,2.288507E-02
2.46025E+01,-1.842E-02,2.186572E-02
2.463584E+01,-1.858199E-02,2.090786E-02
2.466918E+01,-1.944517E-02,2.029938E-02
2.470251E+01,-2.085916E-02,2.020173E-02
2.473585E+01,-2.227235E-02,2.046384E-02
2.476919E+01,-2.330146E-02,2.093709E-02
2.480252E+01,-2.36551E-02,2.136593E-02
2.483586E+01,-2.312532E-02,2.169025E-02
2.48692E+01,-2.193436E-02,2.17553E-02
2.490253E+01,-2.035281E-02,2.166372E-02
2.493587E+01,-1.88206E-02,2.157737E-02
2.496921E+01,-1.791846E-02,2.159202E-02
2.500254E+01,-1.784257E-02,2.182618E-02
2.503588E+01,-1.864925E-02,2.219852E-02
2.506922E+01,-2.004669E-02,2.251708E-02
2.510255E+01,-2.157587E-02,2.258214E-02
2.513589E+01,-2.268733E-02,2.229802E-02
2.516923E+01,-2.321372E-02,2.164012E-02
2.520256E+01,-2.301949E-02,2.07902E-02
2.52359E+01,-2.222459E-02,1.994842E-02
2.526924E+01,-2.103996E-02,1.947879E-02
2.530257E+01,-1.991829E-02,1.96066E-02
2.533591E+01,-1.92202E-02,2.038526E-02
2.536925E+01,-1.908456E-02,2.15961E-02
2.540258E+01,-1.942335E-02,2.288672E-02
2.543592E+01,-2.003928E-02,2.390377E-02
2.546926E+01,-2.071936E-02,2.424324E-02
2.550259E+01,-2.118743E-02,2.383509E-02
2.553593E+01,-2.136863E-02,2.273653E-02
2.556927E+01,-2.128091E-02,2.12167E-02
2.56026E+01,-2.104668E-02,1.97509E-02
2.563594E+01,-2.082572E-02,1.881997E-02
2.566928E+01,-2.084417E-02,1.86848E-02
2.570261E+01,-2.105163E-02,1.938764E-02
2.573595E+01,-2.129847E-02,2.075476E-02
2.576929E+01,-2.143111E-02,2.224787E-02
2.580262E+01,-2.132227E-02,2.353059E-02
2.583596E+01,-2.089539E-02,2.418024E-02
2.58693E+01,-2.020798E-02,2.406571E-02
2.590263E+01,-1.951802E-02,2.325188E-02
2.593597E+01,-1.904862E-02,2.202138E-02
2.596931E+01,-1.907151E-02,2.073685E-02
2.600264E+01,-1.963652E-02,1.985788E-02
2.603598E+01,-2.068972E-02,1.95909E-02
2.606932E+01,-2.187953E-02,1.990502E-02
2.610265E+01,-2.283805E-02,2.059981E-02
2.613599E+01,-2.322824E-02,2.142103E-02
2.616933E+01,-2.290286E-02,2.209052E-02
2.620266E+01,-2.193452E-02,2.245875E-02
2.6236E+01,-2.053297E-02,2.24952E-02
2.626934E+01,-1.910662E-02,2.225918E-02
2.630268E+01,-1.810466E-02,2.190815E-02
2.633601E+01,-1.790848E-02,2.171447E-02
2.636935E+01,-1.852546E-02,2.166868E-02
2.640269E+01,-1.988646E-02,2.174941E-02
2.643602E+01,-2.143019E-02,2.182678E-02
2.646936E+01,-2.274959E-02,2.180039E-02
2.65027E+01,-2.345786E-02,2.156541E-02
2.653603E+01,-2.336429E-02,2.110247E-02
2.656937E+01,-2.255045E-02,2.062262E-02
2.660271E+01,-2.126694E-02,2.025327E-02
2.663604E+01,-1.988555E-02,2.020839E-02
2.666938E+01,-1.889665E-02,2.065626E-02
2.670272E+01,-1.859041E-02,2.151091E-02
2.673605E+01,-1.886984E-02,2.253157E-02
2.676939E+01,-1.964537E-02,2.340562E-02
2.680273E+01,-2.065818E-02,2.37872E-02
2.683606E+01,-2.148303E-02,2.351852E-02
2.68694E+01,-2.198089E-02,2.262337E-02
2.690274E+01,-2.200337E-02,2.132116E-02
2.693607E+01,-2.165761E-02,1.997609E-02
2.696941E+01,-2.116778E-02,1.898763E-02
2.700275E+01,-2.071347E-02,1.873876E-02
2.703608E+01,-2.049586E-02,1.929501E-02
2.706942E+01,-2.051364E-02,2.054404E-02
2.710276E+01,-2.068198E-02,2.207773E-02
2.713609E+01,-2.080364E-02,2.343309E-02
2.716943E+01,-2.079594E-02,2.420536E-02
2.720277E+01,-2.053531E-02,2.417703E-02
2.72361E+01,-2.020892E-02,2.34028E-02
2.726944E+01,-1.986015E-02,2.214861E-02
2.730278E+01,-1.975039E-02,2.0719E-02
2.733611E+01,-2.000478E-02,1.962503E-02
2.736945E+01,-2.066361E-02,1.912505E-02
2.740279E+01,-2.152154E-02,1.938682E-02
2.743612E+01,-2.233481E-02,2.021054E-02
2.746946E+01,-2.275889E-02,2.129658E-02
2.75028E+01,-2.26245E-02,2.233125E-02
2.753613E+01,-2.192924E-02,2.294938E-02
2.756947E+01,-2.07854E-02,2.312396E-02
2.760281E+01,-1.949694E-02,2.284133E-02
2.763614E+01,-1.853393E-02,2.223399E-02
2.766948E+01,-1.819619E-02,2.160011E-02
2.770282E+01,-1.863896E-02,2.11446E-02
2.773615E+01,-1.976453E-02,2.10016E-02
2.776949E+01,-2.124423E-02,2.106492E-02
2.780283E+01,-2.261766E-02,2.122666E-02
2.783616E+01,-2.340367E-02,2.136211E-02
2.78695E+01,-2.348165E-02,2.136617E-02
2.790284E+01,-2.274663E-02,2.122484E-02
2.793617E+01,-2.150478E-02,2.105847E-02
2.796951E+01,-2.000114E-02,2.094613E-02
2.800285E+01,-1.88231E-02,2.108855E-02
2.803618E+01,-1.826747E-02,2.155155E-02
2.806952E+01,-1.850804E-02,2.220161E-02
2.810286E+01,-1.936824E-02,2.284416E-02
2.813619E+01,-2.054229E-02,2.320472E-02
2.816953E+01,-2.174971E-02,2.309935E-02
2.820287E+01,-2.24215E-02,2.248459E-02
2.823621E+01,-2.259596E-02,2.151772E-02
2.826954E+01,-2.225494E-02,2.043407E-02
2.830288E+01,-2.153249E-02,1.95512E-02
2.833622E+01,-2.072344E-02,1.91906E-02
2.836955E+01,-2.011307E-02,1.959094E-02
2.840289E+01,-1.984518E-02,2.064179E-02
2.843623E+01,-1.99564E-02,2.200853E-02
2.846956E+01,-2.022666E-02,2.329762E-02
2.85029E+01,-2.053633E-02,2.413025E-02
2.853624E+01,-2.074228E-02,2.42243E-02
2.856957E+01,-2.073758E-02,2.359403E-02
2.860291E+01,-2.059881E-02,2.235034E-02
2.863625E+01,-2.044606E-02,2.087705E-02
2.866958E+01,-2.043773E-02,1.9636E-02
2.870292E+01,-2.065713E-02,1.901966E-02
2.873626E+01,-2.10966E-02,1.913303E-02
2.876959E+01,-2.164393E-02,1.997762E-02
2.880293E+01,-2.202677E-02,2.121738E-02
2.883627E+01,-2.205514E-02,2.244649E-02
2.88696E+01,-2.166352E-02,2.334195E-02
2.890294E+01,-2.084622E-02,2.36547E-02
2.893628E+01,-1.990239E-02,2.332096E-02
2.896961E+01,-1.905953E-02,2.256797E-02
2.900295E+01,-1.867395E-02,2.164007E-02
2.903629E+01,-1.89171E-02,2.084855E-02
2.906962E+01,-1.980551E-02,2.041255E-02
2.910296E+01,-2.107198E-02,2.042721E-02
2.91363E+01,-2.234542E-02,2.072901E-02
2.916963E+01,-2.319512E-02,2.114809E-02
2.920297E+01,-2.334967E-02,2.153149E-02
2.923631E+01,-2.276728E-02,2.175628E-02
2.926964E+01,-2.157911E-02,2.180872E-02
2.930298E+01,-2.014169E-02,2.170225E-02
2.933632E+01,-1.886095E-02,2.160728E-02
2.936965E+01,-1.815417E-02,2.163923E-02
2.940299E+01,-1.825549E-02,2.190025E-02
2.943633E+01,-1.907744E-02,2.225392E-02
2.946966E+01,-2.039152E-02,2.252398E-02
2.9503E+01,-2.172515E-02,2.253772E-02
2.953634E+01,-2.265143E-02,2.220989E-02
2.956967E+01,-2.300599E-02,2.158685E-02
2.960301E+01,-2.272869E-02,2.0762E-02
2.963635E+01,-2.191987E-02,2.006166E-02
2.966968E+01,-2.08559E-02,1.970919E-02
2.970302E+01,-1.992788E-02,1.98793E-02
2.973636E+01,-1.934965E-02,2.067094E-02
2.976969E+01,-1.934695E-02,2.181678E-02
2.980303E+01,-1.970907E-02,2.297053E-02
2.983637E+01,-2.033047E-02,2.376492E-02
2.98697E+01,-2.088883E-02,2.397155E-02
2.990304E+01,-2.127045E-02,2.346769E-02
2.993638E+01,-2.134511E-02,2.237812E-02
2.996971E+01,-2.125929E-02,2.099467E-02
3.000305E+01,-2.10123E-02,1.971342E-02
3.003639E+01,-2.086196E-02,1.902097E-02
3.006972E+01,-2.088974E-02,1.900224E-02
3.010306E+01,-2.106827E-02,1.976722E-02
3.01364E+01,-2.129618E-02,2.106411E-02
3.016973E+01,-2.140002E-02,2.241599E-02
3.020307E+01,-2.12735E-02,2.344003E-02
3.023641E+01,-2.083984E-02,2.391103E-02
3.026975E+01,-2.02331E-02,2.365611E-02
3.030308E+01,-1.960352E-02,2.282926E-02
3.033642E+01,-1.922777E-02,2.168445E-02
3.036976E+01,-1.929552E-02,2.06157E-02
3.040309E+01,-1.984248E-02,1.992927E-02
3.043643E+01,-2.084309E-02,1.977843E-02
3.046977E+01,-2.191991E-02,2.013249E-02
3.05031E+01,-2.274475E-02,2.083161E-02
3.053644E+01,-2.299899E-02,2.156196E-02
3.056978E+01,-2.262728E-02,2.21055E-02
3.060311E+01,-2.163275E-02,2.23754E-02
3.063645E+01,-2.035403E-02,2.232539E-02
3.066979E+01,-1.908516E-02,2.208066E-02
3.070312E+01,-1.830762E-02,2.179846E-02
3.073646E+01,-1.826499E-02,2.161677E-02
3.07698E+01,-1.899211E-02,2.159216E-02
3.080313E+01,-2.020346E-02,2.171331E-02
3.083647E+01,-2.159427E-02,2.180903E-02
3.086981E+01,-2.264926E-02,2.175822E-02
3.090314E+01,-2.316927E-02,2.153738E-02
3.093648E+01,-2.295071E-02,2.109321E-02
3.096982E+01,-2.211509E-02,2.068401E-02
3.100315E+01,-2.094443E-02,2.039955E-02
3.103649E+01,-1.975083E-02,2.046351E-02
3.106983E+01,-1.898366E-02,2.092933E-02
3.110316E+01,-1.878976E-02,2.169522E-02
3.11365E+01,-1.918047E-02,2.262293E-02
3.116984E+01,-1.997557E-02,2.336228E-02
3.120317E+01,-2.085062E-02,2.358955E-02
3.123651E+01,-2.156028E-02,2.32738E-02
3.126985E+01,-2.190817E-02,2.241421E-02
3.130318E+01,-2.186574E-02,2.121296E-02
3.133652E+01,-2.149404E-02,2.004014E-02
3.136986E+01,-2.105444E-02,1.925498E-02
3.140319E+01,-2.066613E-02,1.914953E-02
3.143653E+01,-2.052462E-02,1.9783E-02
3.146987E+01,-2.058354E-02,2.096456E-02
3.15032E+01,-2.074871E-02,2.232317E-02
3.153654E+01,-2.084725E-02,2.347667E-02
3.156988E+01,-2.079143E-02,2.402667E-02
3.160321E+01,-2.054333E-02,2.387502E-02
3.163655E+01,-2.021838E-02,2.309175E-02
3.166989E+01,-1.990645E-02,2.186087E-02
3.170322E+01,-1.984584E-02,2.058032E-02
3.173656E+01,-2.014144E-02,1.969883E-02
3.17699E+01,-2.077436E-02,1.937581E-02
3.180323E+01,-2.153649E-02,1.970191E-02
3.183657E+01,-2.22056E-02,2.051508E-02
3.186991E+01,-2.252876E-02,2.151328E-02
3.190324E+01,-2.232354E-02,2.237445E-02
3.193658E+01,-2.161212E-02,2.287046E-02
3.196992E+01,-2.050138E-02,2.291346E-02
3.200325E+01,-1.93929E-02,2.260241E-02
3.203659E+01,-1.86015E-02,2.206477E-02
3.206993E+01,-1.841662E-02,2.150992E-02
3.210326E+01,-1.89536E-02,2.118506E-02
3.21366E+01,-2.006431E-02,2.108962E-02
3.216994E+01,-2.141358E-02,2.122082E-02
3.220328E+01,-2.253186E-02,2.139595E-02
3.223661E+01,-2.313293E-02,2.148179E-02
3.226995E+01,-2.308474E-02,2.143191E-02
3.230329E+01,-2.233222E-02,2.126978E-02
3.233662E+01,-2.113911E-02,2.107783E-02
3.236996E+01,-1.98067E-02,2.103098E-02
3.24033E+01,-1.883069E-02,2.119296E-02
3.243663E+01,-1.848848E-02,2.161276E-02
3.246997E+01,-1.882511E-02,2.21966E-02
3.250331E+01,-1.966713E-02,2.277606E-02
3.253664E+01,-2.075278E-02,2.304648E-02
3.256998E+01,-2.176248E-02,2.28927E-02
3.260332E+01,-2.234347E-02,2.230382E-02
3.263665E+01,-2.24075E-02,2.139158E-02
3.266999E+01,-2.198969E-02,2.040914E-02
3.270333E+01,-2.131167E-02,1.969275E-02
3.273666E+01,-2.057383E-02,1.945784E-02
3.277E+01,-2.009544E-02,1.99499E-02
3.280334E+01,-1.991727E-02,2.094864E-02
3.283667E+01,-2.005626E-02,2.218395E-02
3.287001E+01,-2.032967E-02,2.333223E-02
3.290335E+01,-2.06286E-02,2.396335E-02
3.293668E+01,-2.075372E-02,2.394547E-02
3.297002E+01,-2.071159E-02,2.326482E-02
3.300336E+01,-2.057751E-02,2.209998E-02
3.303669E+01,-2.043008E-02,2.077598E-02
3.307003E+01,-2.044879E-02,1.96987E-02
3.310337E+01,-2.070377E-02,1.928097E-02
3.31367E+01,-2.114551E-02,1.951077E-02
3.317004E+01,-2.162238E-02,2.038116E-02
3.320338E+01,-2.193918E-02,2.147949E-02
3.323671E+01,-2.19142E-02,2.253399E-02
3.327005E+01,-2.145697E-02,2.323511E-02
3.330339E+01,-2.06998E-02,2.338819E-02
3.333672E+01,-1.982891E-02,2.299417E-02
3.337006E+01,-1.910323E-02,2.224951E-02
3.34034E+01,-1.883561E-02,2.142869E-02
3.343673E+01,-1.915172E-02,2.077156E-02
3.347007E+01,-2.001422E-02,2.045482E-02
3.350341E+01,-2.122644E-02,2.050549E-02
3.353674E+01,-2.231636E-02,2.083304E-02
3.357008E+01,-2.300788E-02,2.125461E-02
3.360342E+01,-2.305224E-02,2.15828E-02
3.363675E+01,-2.242241E-02,2.171678E-02
3.367009E+01,-2.125285E-02,2.170783E-02
3.370343E+01,-1.995624E-02,2.15864E-02
3.373676E+01,-1.886933E-02,2.149957E-02
3.37701E+01,-1.836533E-02,2.15905E-02
3.380344E+01,-1.860292E-02,2.182069E-02
3.383677E+01,-1.944821E-02,2.212595E-02
3.387011E+01,-2.06249E-02,2.236283E-02
3.390345E+01,-2.179016E-02,2.236936E-02
3.393678E+01,-2.255245E-02,2.204315E-02
3.397012E+01,-2.273352E-02,2.147645E-02
3.400346E+01,-2.23795E-02,2.071708E-02
3.403679E+01,-2.155514E-02,2.012963E-02
3.407013E+01,-2.059104E-02,1.990836E-02
3.410347E+01,-1.980862E-02,2.017245E-02
3.413681E+01,-1.941365E-02,2.095015E-02
3.417014E+01,-1.94656E-02,2.19983E-02
3.420348E+01,-1.989437E-02,2.299026E-02
3.423682E+01,-2.045386E-02,2.366532E-02
3.427015E+01,-2.095165E-02,2.375321E-02
3.430349E+01,-2.125071E-02,2.31928E-02
3.433683E+01,-2.128492E-02,2.212453E-02
3.437016E+01,-2.111443E-02,2.085805E-02
3.44035E+01,-2.091097E-02,1.97845E-02
3.443684E+01,-2.078076E-02,1.923236E-02
3.447017E+01,-2.08126E-02,1.938632E-02
3.450351E+01,-2.103004E-02,2.018733E-02
3.453685E+01,-2.12621E-02,2.136781E-02
3.457018E+01,-2.136556E-02,2.255309E-02
3.460352E+01,-2.121198E-02,2.341332E-02
3.463686E+01,-2.07951E-02,2.373274E-02
3.467019E+01,-2.020197E-02,2.340037E-02
3.470353E+01,-1.965105E-02,2.259192E-02
3.473687E+01,-1.936236E-02,2.15671E-02
3.47702E+01,-1.949264E-02,2.066023E-02
3.480354E+01,-2.009278E-02,2.008088E-02
3.483688E+01,-2.099864E-02,2.005117E-02
3.487021E+01,-2.194404E-02,2.044926E-02
3.490355E+01,-2.259886E-02,2.109009E-02
3.493689E+01,-2.275538E-02,2.174408E-02
3.497022E+01,-2.231458E-02,2.216621E-02
3.500356E+01,-2.1385E-02,2.235169E-02
3.50369E+01,-2.020737E-02,2.224945E-02
3.507023E+01,-1.910468E-02,2.198462E-02
3.510357E+01,-1.851307E-02,2.171226E-02
3.513691E+01,-1.860647E-02,2.157827E-02
3.517024E+01,-1.933215E-02,2.159978E-02
3.520358E+01,-2.050818E-02,2.170769E-02
3.523692E+01,-2.174448E-02,2.177331E-02
3.527025E+01,-2.261677E-02,2.173443E-02
3.530359E+01,-2.294199E-02,2.146063E-02
3.533693E+01,-2.26376E-02,2.105601E-02
3.537026E+01,-2.182584E-02,2.065028E-02
3.54036E+01,-2.071013E-02,2.039063E-02
3.543694E+01,-1.966885E-02,2.045139E-02
3.547027E+01,-1.906368E-02,2.097085E-02
3.550361E+01,-1.900801E-02,2.173895E-02
3.553695E+01,-1.94495E-02,2.253658E-02
3.557028E+01,-2.023225E-02,2.31289E-02
3.560362E+01,-2.099286E-02,2.330282E-02
3.563696E+01,-2.157572E-02,2.291816E-02
3.567029E+01,-2.178959E-02,2.208088E-02
3.570363E+01,-2.168342E-02,2.099745E-02
3.573697E+01,-2.131368E-02,1.997656E-02
3.57703E+01,-2.089167E-02,1.936305E-02
3.580364E+01,-2.058125E-02,1.939418E-02
3.583698E+01,-2.049579E-02,2.007279E-02
3.587031E+01,-2.058057E-02,2.120989E-02
3.590365E+01,-2.074139E-02,2.239723E-02
3.593699E+01,-2.083174E-02,2.332787E-02
3.597032E+01,-2.076909E-02,2.372845E-02
3.600366E+01,-2.051391E-02,2.348708E-02
3.6037E+01,-2.018333E-02,2.2658E-02
3.607034E+01,-1.994228E-02,2.154045E-02
3.610367E+01,-1.990851E-02,2.046823E-02
3.613701E+01,-2.021485E-02,1.973805E-02
3.617035E+01,-2.079011E-02,1.963438E-02
3.620368E+01,-2.147881E-02,2.005593E-02
3.623702E+01,-2.203447E-02,2.083081E-02
3.627036E+01,-2.228995E-02,2.173117E-02
3.630369E+01,-2.20049E-02,2.244752E-02
3.633703E+01,-2.126627E-02,2.28053E-02
3.637037E+01,-2.02937E-02,2.277062E-02
3.64037E+01,-1.93468E-02,2.239095E-02
3.643704E+01,-1.873188E-02,2.186508E-02
3.647038E+01,-1.868455E-02,2.136128E-02
3.650371E+01,-1.926205E-02,2.112477E-02
3.653705E+01,-2.032228E-02,2.111115E-02
3.657039E+01,-2.15449E-02,2.125255E-02
3.660372E+01,-2.248271E-02,2.143058E-02
3.663706E+01,-2.292143E-02,2.148996E-02
3.66704E+01,-2.273341E-02,2.144334E-02
3.670373E+01,-2.198141E-02,2.128094E-02
3.673707E+01,-2.083102E-02,2.109854E-02
3.677041E+01,-1.97083E-02,2.108931E-02
3.680374E+01,-1.890077E-02,2.127862E-02
3.683708E+01,-1.872808E-02,2.169921E-02
3.687042E+01,-1.912886E-02,2.224837E-02
3.690375E+01,-1.99594E-02,2.270958E-02
3.693709E+01,-2.094513E-02,2.291498E-02
3.697043E+01,-2.178151E-02,2.27075E-02
3.700376E+01,-2.224179E-02,2.20687E-02
3.70371E+01,-2.220614E-02,2.123001E-02
3.707044E+01,-2.174622E-02,2.04102E-02
3.710377E+01,-2.109087E-02,1.983158E-02
3.713711E+01,-2.047022E-02,1.973373E-02
3.717045E+01,-2.007615E-02,2.026453E-02
3.720378E+01,-1.999878E-02,2.123098E-02
3.723712E+01,-2.019881E-02,2.236083E-02
3.727046E+01,-2.047058E-02,2.331013E-02
3.730379E+01,-2.071678E-02,2.37721E-02
3.733713E+01,-2.083375E-02,2.361111E-02
3.737047E+01,-2.07848E-02,2.287345E-02
3.74038E+01,-2.060776E-02,2.178849E-02
3.743714E+01,-2.046655E-02,2.06565E-02
3.747048E+01,-2.049309E-02,1.976105E-02
3.750381E+01,-2.072123E-02,1.949639E-02
3.753715E+01,-2.115032E-02,1.983278E-02
3.757049E+01,-2.154913E-02,2.067339E-02
3.760382E+01,-2.179224E-02,2.173357E-02
3.763716E+01,-2.171454E-02,2.263602E-02
3.76705E+01,-2.125111E-02,2.316935E-02
3.770383E+01,-2.055049E-02,2.320954E-02
3.773717E+01,-1.978019E-02,2.277632E-02
3.777051E+01,-1.920481E-02,2.206527E-02
3.780384E+01,-1.907438E-02,2.132118E-02
3.783718E+01,-1.945404E-02,2.078584E-02
3.787052E+01,-2.032474E-02,2.055113E-02
3.790385E+01,-2.138821E-02,2.068992E-02
3.793719E+01,-2.230966E-02,2.103418E-02
3.797053E+01,-2.282457E-02,2.138163E-02
3.800387E+01,-2.274033E-02,2.165754E-02
3.80372E+01,-2.209422E-02,2.176664E-02
3.807054E+01,-2.100513E-02,2.17307E-02
3.810388E+01,-1.984335E-02,2.15998E-02
3.813721E+01,-1.894958E-02,2.151333E-02
3.817055E+01,-1.862511E-02,2.161428E-02
3.820389E+01,-1.896893E-02,2.182759E-02
3.823722E+01,-1.978922E-02,2.21087E-02
3.827056E+01,-2.088819E-02,2.230445E-02
3.83039E+01,-2.18973E-02,2.229521E-02
3.833723E+01,-2.248271E-02,2.192176E-02
3.837057E+01,-2.254829E-02,2.136363E-02
3.840391E+01,-2.210426E-02,2.074396E-02
3.843724E+01,-2.129514E-02,2.025318E-02
3.847058E+01,-2.044478E-02,2.006935E-02
3.850392E+01,-1.97837E-02,2.038398E-02
3.853725E+01,-1.95196E-02,2.110792E-02
3.857059E+01,-1.963855E-02,2.206172E-02
3.860393E+01,-2.007245E-02,2.295415E-02
3.863726E+01,-2.058286E-02,2.343895E-02
3.86706E+01,-2.10077E-02,2.341875E-02
3.870394E+01,-2.123763E-02,2.282307E-02
3.873727E+01,-2.122092E-02,2.18181E-02
3.877061E+01,-2.105151E-02,2.069877E-02
3.880395E+01,-2.082497E-02,1.983085E-02
3.883728E+01,-2.075307E-02,1.943288E-02
3.887062E+01,-2.081634E-02,1.967599E-02
3.890396E+01,-2.103472E-02,2.046977E-02
3.893729E+01,-2.122409E-02,2.157116E-02
3.897063E+01,-2.129312E-02,2.260326E-02
3.900397E+01,-2.111457E-02,2.329513E-02
3.90373E+01,-2.071472E-02,2.344543E-02
3.907064E+01,-2.018962E-02,2.306144E-02
3.910398E+01,-1.971457E-02,2.22369E-02
3.913731E+01,-1.953016E-02,2.131613E-02
3.917065E+01,-1.972481E-02,2.052808E-02
3.920399E+01,-2.031678E-02,2.011832E-02
3.923732E+01,-2.114909E-02,2.015732E-02
3.927066E+01,-2.197372E-02,2.062555E-02
3.9304E+01,-2.24872E-02,2.120579E-02
3.933733E+01,-2.251909E-02,2.175439E-02
3.937067E+01,-2.202948E-02,2.21011E-02
3.940401E+01,-2.112924E-02,2.219658E-02
3.943734E+01,-2.005433E-02,2.207588E-02
3.947068E+01,-1.914474E-02,2.183016E-02
3.950402E+01,-1.869744E-02,2.157183E-02
3.953735E+01,-1.889796E-02,2.150493E-02
3.957069E+01,-1.969018E-02,2.156665E-02
3.960403E+01,-2.076005E-02,2.168544E-02
3.963736E+01,-2.182606E-02,2.174595E-02
3.96707E+01,-2.25419E-02,2.166756E-02
3.970404E+01,-2.269877E-02,2.14306E-02
3.973737E+01,-2.230969E-02,2.106118E-02
3.977071E+01,-2.148539E-02,2.069402E-02
3.980405E+01,-2.049005E-02,2.05344E-02
3.983738E+01,-1.96368E-02,2.069898E-02
3.987072E+01,-1.918677E-02,2.117437E-02
3.990406E+01,-1.923688E-02,2.187801E-02
3.99374E+01,-1.971873E-02,2.257344E-02
3.997073E+01,-2.046082E-02,2.306968E-02
4.000407E+01,-2.113947E-02,2.31251E-02
4.003741E+01,-2.160859E-02,2.270728E-02
4.007074E+01,-2.171713E-02,2.187371E-02
4.010408E+01,-2.15379E-02,2.087406E-02
4.013742E+01,-2.115588E-02,2.002029E-02
4.017075E+01,-2.077974E-02,1.95931E-02
4.020409E+01,-2.05257E-02,1.975132E-02
4.023743E+01,-2.046955E-02,2.044271E-02
4.027076E+01,-2.057317E-02,2.151166E-02
4.03041E+01,-2.073444E-02,2.260525E-02
4.033744E+01,-2.082236E-02,2.335446E-02
4.037077E+01,-2.075079E-02,2.358013E-02
4.040411E+01,-2.052486E-02,2.324409E-02
4.043745E+01,-2.021163E-02,2.243163E-02
4.047078E+01,-1.998657E-02,2.136394E-02
4.050412E+01,-2.001857E-02,2.044892E-02
4.053746E+01,-2.034933E-02,1.990024E-02
4.057079E+01,-2.090289E-02,1.988215E-02
4.060413E+01,-2.153289E-02,2.036343E-02
4.063747E+01,-2.199884E-02,2.110789E-02
4.06708E+01,-2.20991E-02,2.191236E-02
4.070414E+01,-2.179586E-02,2.249827E-02
4.073748E+01,-2.110668E-02,2.275965E-02
4.077081E+01,-2.021928E-02,2.264172E-02
4.080415E+01,-1.939199E-02,2.22453E-02
4.083749E+01,-1.891048E-02,2.174624E-02
4.087082E+01,-1.899546E-02,2.132447E-02
4.090416E+01,-1.960518E-02,2.110184E-02
4.09375E+01,-2.0623E-02,2.113447E-02
4.097083E+01,-2.16885E-02,2.127382E-02
4.100417E+01,-2.245885E-02,2.1442E-02
4.103751E+01,-2.276039E-02,2.14768E-02
4.107084E+01,-2.24821E-02,2.140619E-02
4.110418E+01,-2.168956E-02,2.126139E-02
4.113752E+01,-2.062573E-02,2.112014E-02
4.117085E+01,-1.962682E-02,2.111462E-02
4.120419E+01,-1.903927E-02,2.131396E-02
4.123753E+01,-1.898795E-02,2.171285E-02
4.127086E+01,-1.944942E-02,2.218429E-02
4.13042E+01,-2.030363E-02,2.259686E-02
4.133754E+01,-2.115774E-02,2.272979E-02
4.137087E+01,-2.183682E-02,2.249706E-02
4.140421E+01,-2.213078E-02,2.191505E-02
4.143755E+01,-2.201535E-02,2.112704E-02
4.147088E+01,-2.150601E-02,2.038087E-02
4.150422E+01,-2.090092E-02,1.992309E-02
4.153756E+01,-2.037171E-02,1.994786E-02
4.157089E+01,-2.00625E-02,2.04766E-02
4.160423E+01,-2.004273E-02,2.138161E-02
4.163757E+01,-2.027994E-02,2.240515E-02
4.16709E+01,-2.057064E-02,2.317349E-02
4.170424E+01,-2.080642E-02,2.349111E-02
4.173758E+01,-2.087774E-02,2.323863E-02
4.177091E+01,-2.080906E-02,2.249199E-02
4.180425E+01,-2.065794E-02,2.146039E-02
4.183759E+01,-2.05263E-02,2.044413E-02
4.187093E+01,-2.05803E-02,1.978809E-02
4.190426E+01,-2.082561E-02,1.965524E-02
4.19376E+01,-2.120425E-02,2.00711E-02
4.197094E+01,-2.153676E-02,2.089362E-02
4.200427E+01,-2.171493E-02,2.183854E-02
4.203761E+01,-2.156662E-02,2.260733E-02
4.207095E+01,-2.112521E-02,2.301192E-02
4.210428E+01,-2.045755E-02,2.29953E-02
4.213762E+01,-1.977124E-02,2.253986E-02
4.217096E+01,-1.934029E-02,2.185587E-02
4.220429E+01,-1.927572E-02,2.118884E-02
4.223763E+01,-1.968281E-02,2.073914E-02
4.227097E+01,-2.049245E-02,2.062425E-02
4.23043E+01,-2.144565E-02,2.077359E-02
4.233764E+01,-2.221346E-02,2.110204E-02
4.237098E+01,-2.257222E-02,2.145916E-02
4.240431E+01,-2.242992E-02,2.168053E-02
4.243765E+01,-2.176409E-02,2.172622E-02
4.247099E+01,-2.07582E-02,2.165337E-02
4.250432E+01,-1.97112E-02,2.154596E-02
4.253766E+01,-1.904218E-02,2.150572E-02
4.2571E+01,-1.888088E-02,2.159639E-02
4.260433E+01,-1.924762E-02,2.180723E-02
4.263767E+01,-2.007278E-02,2.206964E-02
4.267101E+01,-2.10486E-02,2.222323E-02
4.270434E+01,-2.188908E-02,2.215236E-02
4.273768E+01,-2.235125E-02,2.18127E-02
4.277102E+01,-2.232983E-02,2.127526E-02
4.280435E+01,-2.18545E-02,2.072531E-02
4.283769E+01,-2.109896E-02,2.031719E-02
4.287103E+01,-2.033025E-02,2.026073E-02
4.290436E+01,-1.979408E-02,2.063708E-02
4.29377E+01,-1.96308E-02,2.135117E-02
4.297104E+01,-1.982424E-02,2.221114E-02
4.300437E+01,-2.02281E-02,2.295315E-02
4.303771E+01,-2.071047E-02,2.329241E-02
4.307105E+01,-2.107217E-02,2.316687E-02
4.310438E+01,-2.124507E-02,2.255761E-02
4.313772E+01,-2.118165E-02,2.160821E-02
4.317106E+01,-2.097858E-02,2.058178E-02
4.320439E+01,-2.079275E-02,1.987599E-02
4.323773E+01,-2.069932E-02,1.966566E-02
4.327107E+01,-2.079642E-02,1.999177E-02
4.33044E+01,-2.098152E-02,2.083517E-02
4.333774E+01,-2.114896E-02,2.185248E-02
4.337108E+01,-2.117834E-02,2.270683E-02
4.340441E+01,-2.099598E-02,2.319137E-02
4.343775E+01,-2.062079E-02,2.321543E-02
4.347109E+01,-2.014287E-02,2.274794E-02
4.350442E+01,-1.978246E-02,2.19885E-02
4.353776E+01,-1.964422E-02,2.114364E-02
4.35711E+01,-1.988505E-02,2.0488E-02
4.360443E+01,-2.046075E-02,2.02146E-02
4.363777E+01,-2.123911E-02,2.036997E-02
4.367111E+01,-2.194103E-02,2.079043E-02
4.370444E+01,-2.232982E-02,2.134062E-02
4.373778E+01,-2.229373E-02,2.18251E-02
4.377112E+01,-2.173638E-02,2.209497E-02
4.380445E+01,-2.087505E-02,2.212552E-02
4.383779E+01,-1.991941E-02,2.19469E-02
4.387113E+01,-1.916997E-02,2.170069E-02
4.390447E+01,-1.891363E-02,2.151396E-02
4.39378E+01,-1.921172E-02,2.146598E-02
4.397114E+01,-1.998279E-02,2.152771E-02
4.400448E+01,-2.099625E-02,2.165843E-02
4.403781E+01,-2.193733E-02,2.171089E-02
4.407115E+01,-2.247528E-02,2.163797E-02
4.410449E+01,-2.25346E-02,2.141578E-02
4.413782E+01,-2.207808E-02,2.109806E-02
4.417116E+01,-2.129102E-02,2.081071E-02
4.42045E+01,-2.035184E-02,2.071726E-02
4.423783E+01,-1.963218E-02,2.089379E-02
4.427117E+01,-1.933199E-02,2.132774E-02
4.430451E+01,-1.947801E-02,2.197069E-02
4.433784E+01,-1.997856E-02,2.254954E-02
4.437118E+01,-2.063562E-02,2.290623E-02
4.440452E+01,-2.122686E-02,2.288305E-02
4.443785E+01,-2.160792E-02,2.244148E-02
4.447119E+01,-2.162423E-02,2.167987E-02
4.450453E+01,-2.144074E-02,2.079791E-02
4.453786E+01,-2.106058E-02,2.007791E-02
4.45712E+01,-2.070656E-02,1.976933E-02
4.460454E+01,-2.05041E-02,2.001446E-02
4.463787E+01,-2.048644E-02,2.07352E-02
4.467121E+01,-2.061264E-02,2.171388E-02
4.470455E+01,-2.075059E-02,2.26186E-02
4.473788E+01,-2.081789E-02,2.323131E-02
4.477122E+01,-2.074663E-02,2.333655E-02
4.480456E+01,-2.052674E-02,2.293429E-02
4.483789E+01,-2.029524E-02,2.210319E-02
4.487123E+01,-2.013471E-02,2.119678E-02
4.490457E+01,-2.019998E-02,2.038474E-02
4.49379E+01,-2.049889E-02,1.994683E-02
4.497124E+01,-2.099843E-02,2.000765E-02
4.500458E+01,-2.155297E-02,2.055502E-02
4.503791E+01,-2.193842E-02,2.126543E-02
4.507125E+01,-2.197422E-02,2.198048E-02
4.510459E+01,-2.160786E-02,2.246157E-02
4.513792E+01,-2.09281E-02,2.261643E-02
4.517126E+01,-2.010005E-02,2.245713E-02
4.52046E+01,-1.937655E-02,2.205302E-02
4.523793E+01,-1.905171E-02,2.160877E-02
4.527127E+01,-1.923539E-02,2.1248E-02
4.530461E+01,-1.985165E-02,2.111613E-02
4.533794E+01,-2.079792E-02,2.119253E-02
4.537128E+01,-2.171019E-02,2.132524E-02
4.540462E+01,-2.235474E-02,2.145684E-02
4.543795E+01,-2.252468E-02,2.146523E-02
4.547129E+01,-2.213793E-02,2.139693E-02
4.550463E+01,-2.137977E-02,2.127178E-02
4.553796E+01,-2.043596E-02,2.114098E-02
4.55713E+01,-1.956922E-02,2.114346E-02
4.560464E+01,-1.909991E-02,2.136344E-02
4.563797E+01,-1.914586E-02,2.176998E-02
4.567131E+01,-1.964869E-02,2.220582E-02
4.570465E+01,-2.043646E-02,2.253785E-02
4.573798E+01,-2.122114E-02,2.256442E-02
4.577132E+01,-2.181079E-02,2.225167E-02
4.580466E+01,-2.199781E-02,2.168988E-02
4.5838E+01,-2.181192E-02,2.096495E-02
4.587133E+01,-2.132071E-02,2.036185E-02
4.590467E+01,-2.074962E-02,2.003252E-02
4.593801E+01,-2.030131E-02,2.014115E-02
4.597134E+01,-2.006379E-02,2.072285E-02
4.600468E+01,-2.011769E-02,2.157005E-02
4.603802E+01,-2.035717E-02,2.244848E-02
4.607135E+01,-2.061778E-02,2.310146E-02
4.610469E+01,-2.081812E-02,2.327425E-02
4.613803E+01,-2.086048E-02,2.299176E-02
4.617136E+01,-2.078903E-02,2.224178E-02
4.62047E+01,-2.059928E-02,2.132064E-02
4.623804E+01,-2.049399E-02,2.043397E-02
4.627137E+01,-2.056012E-02,1.992358E-02
4.630471E+01,-2.079253E-02,1.99198E-02
4.633805E+01,-2.112493E-02,2.039251E-02
4.637138E+01,-2.143376E-02,2.1161E-02
4.640472E+01,-2.153753E-02,2.198797E-02
4.643806E+01,-2.138305E-02,2.262962E-02
4.647139E+01,-2.095917E-02,2.290685E-02
4.650473E+01,-2.035298E-02,2.277218E-02
4.653807E+01,-1.976272E-02,2.230496E-02
4.65714E+01,-1.942184E-02,2.169203E-02
4.660474E+01,-1.943713E-02,2.111784E-02
4.663808E+01,-1.991501E-02,2.077675E-02
4.667141E+01,-2.068827E-02,2.072829E-02
4.670475E+01,-2.155165E-02,2.095548E-02
4.673809E+01,-2.216384E-02,2.127338E-02
4.677142E+01,-2.243606E-02,2.157306E-02
4.680476E+01,-2.220119E-02,2.177048E-02
4.68381E+01,-2.152697E-02,2.180104E-02
4.687143E+01,-2.058433E-02,2.173454E-02
4.690477E+01,-1.971614E-02,2.158644E-02
4.693811E+01,-1.916679E-02,2.153005E-02
4.697144E+01,-1.911574E-02,2.161835E-02
4.700478E+01,-1.958098E-02,2.181623E-02
4.703812E+01,-2.041582E-02,2.204324E-02
4.707145E+01,-2.1288E-02,2.215025E-02
4.710479E+01,-2.198609E-02,2.205274E-02
4.713813E+01,-2.22845E-02,2.173482E-02
4.717146E+01,-2.211744E-02,2.12273E-02
4.72048E+01,-2.158665E-02,2.076648E-02
4.723814E+01,-2.089294E-02,2.043911E-02
4.727147E+01,-2.01971E-02,2.045758E-02
4.730481E+01,-1.977747E-02,2.084205E-02
4.733815E+01,-1.971596E-02,2.151504E-02
4.737148E+01,-1.996622E-02,2.228727E-02
4.740482E+01,-2.037804E-02,2.287714E-02
4.743816E+01,-2.080977E-02,2.314241E-02
4.747149E+01,-2.111454E-02,2.293901E-02
4.750483E+01,-2.120789E-02,2.232195E-02
4.753817E+01,-2.112915E-02,2.145857E-02
4.75715E+01,-2.095146E-02,2.056466E-02
4.760484E+01,-2.077846E-02,2.000262E-02
4.763818E+01,-2.072008E-02,1.991711E-02
4.767151E+01,-2.079707E-02,2.032358E-02
4.770485E+01,-2.096719E-02,2.11133E-02
4.773819E+01,-2.112997E-02,2.200138E-02
4.777153E+01,-2.113685E-02,2.275589E-02
4.780486E+01,-2.094823E-02,2.312106E-02
4.78382E+01,-2.061846E-02,2.307029E-02
4.787154E+01,-2.018273E-02,2.255598E-02
4.790487E+01,-1.987619E-02,2.179876E-02
4.793821E+01,-1.9809E-02,2.106668E-02
4.797155E+01,-2.007055E-02,2.050546E-02
4.800488E+01,-2.059801E-02,2.034552E-02
4.803822E+01,-2.129798E-02,2.056035E-02
4.807156E+01,-2.185791E-02,2.101954E-02
4.810489E+01,-2.213962E-02,2.153179E-02
4.813823E+01,-2.199306E-02,2.196958E-02
4.817157E+01,-2.145586E-02,2.216085E-02
4.82049E+01,-2.06205E-02,2.210738E-02
4.823824E+01,-1.978551E-02,2.191322E-02
4.827158E+01,-1.920112E-02,2.168616E-02
4.830491E+01,-1.905965E-02,2.148878E-02
4.833825E+01,-1.943917E-02,2.148379E-02
4.837159E+01,-2.01875E-02,2.157182E-02
4.840492E+01,-2.112659E-02,2.169521E-02
4.843826E+01,-2.191831E-02,2.172248E-02
4.84716E+01,-2.234529E-02,2.165088E-02
4.850493E+01,-2.232166E-02,2.142595E-02
4.853827E+01,-2.182762E-02,2.112912E-02
4.857161E+01,-2.104151E-02,2.088054E-02
4.860494E+01,-2.021009E-02,2.081644E-02
4.863828E+01,-1.96198E-02,2.101266E-02
4.867162E+01,-1.941376E-02,2.146346E-02
4.870495E+01,-1.961498E-02,2.201282E-02
4.873829E+01,-2.01329E-02,2.252442E-02
4.877163E+01,-2.076788E-02,2.278425E-02
4.880496E+01,-2.12803E-02,2.270566E-02
4.88383E+01,-2.15468E-02,2.218966E-02
4.887164E+01,-2.154701E-02,2.148595E-02
4.890497E+01,-2.129358E-02,2.072682E-02
4.893831E+01,-2.095306E-02,2.015607E-02
4.897165E+01,-2.0647E-02,1.9986E-02
4.900498E+01,-2.047867E-02,2.030045E-02
4.903832E+01,-2.049555E-02,2.101913E-02
4.907166E+01,-2.061642E-02,2.188775E-02
4.910499E+01,-2.075197E-02,2.264876E-02
4.913833E+01,-2.078496E-02,2.312616E-02
4.917167E+01,-2.069718E-02,2.314688E-02
4.9205E+01,-2.049155E-02,2.270111E-02
4.923834E+01,-2.026572E-02,2.188874E-02
4.927168E+01,-2.015839E-02,2.1031E-02
4.930501E+01,-2.027172E-02,2.038232E-02
4.933835E+01,-2.057761E-02,2.007793E-02
4.937169E+01,-2.103374E-02,2.025086E-02
4.940502E+01,-2.15239E-02,2.07372E-02
4.943836E+01,-2.180838E-02,2.14133E-02
4.94717E+01,-2.179991E-02,2.204727E-02
4.950503E+01,-2.142674E-02,2.242449E-02
4.953837E+01,-2.076853E-02,2.247645E-02
4.957171E+01,-2.003809E-02,2.228488E-02
4.960504E+01,-1.948238E-02,2.185985E-02
4.963838E+01,-1.926481E-02,2.141282E-02
4.967172E+01,-1.947929E-02,2.114935E-02
4.970506E+01,-2.011288E-02,2.10847E-02
4.973839E+01,-2.094437E-02,2.117183E-02
4.977173E+01,-2.177236E-02,2.135547E-02
4.980507E+01,-2.227796E-02,2.148599E-02
4.98384E+01,-2.231693E-02,2.154301E-02
4.987174E+01,-2.190648E-02,2.148332E-02
4.990508E+01,-2.115987E-02,2.134766E-02
4.993841E+01,-2.027896E-02,2.126629E-02
4.997175E+01,-1.95919E-02,2.128419E-02
5.000509E+01,-1.928305E-02,2.148832E-02
5.003842E+01,-1.939527E-02,2.184385E-02
5.007176E+01,-1.991674E-02,2.220928E-02
5.01051E+01,-2.064556E-02,2.245937E-02
5.013843E+01,-2.131953E-02,2.247829E-02
5.017177E+01,-2.17535E-02,2.217813E-02
5.020511E+01,-2.187503E-02,2.165646E-02
5.023844E+01,-2.162378E-02,2.102153E-02
5.027178E+01,-2.116322E-02,2.049753E-02
5.030512E+01,-2.064693E-02,2.023184E-02
5.033845E+01,-2.024902E-02,2.04289E-02
5.037179E+01,-2.007319E-02,2.0997E-02
5.040513E+01,-2.016586E-02,2.178593E-02
5.043846E+01,-2.040294E-02,2.255415E-02
5.04718E+01,-2.06853E-02,2.305284E-02
5.050514E+01,-2.085854E-02,2.310805E-02
5.053847E+01,-2.088088E-02,2.272374E-02
5.057181E+01,-2.076819E-02,2.20018E-02
5.060515E+01,-2.061711E-02,2.112975E-02
5.063848E+01,-2.05335E-02,2.039534E-02
5.067182E+01,-2.060181E-02,2.005633E-02
5.070516E+01,-2.083795E-02,2.011671E-02
5.073849E+01,-2.114166E-02,2.062995E-02
5.077183E+01,-2.138804E-02,2.137417E-02
5.080517E+01,-2.145966E-02,2.210642E-02
5.08385E+01,-2.125786E-02,2.262721E-02
5.087184E+01,-2.083602E-02,2.279967E-02
5.090518E+01,-2.030428E-02,2.257677E-02
5.093851E+01,-1.980504E-02,2.211287E-02
5.097185E+01,-1.954747E-02,2.152589E-02
5.100519E+01,-1.963502E-02,2.101782E-02
5.103852E+01,-2.011134E-02,2.075559E-02
5.107186E+01,-2.081342E-02,2.076453E-02
5.11052E+01,-2.155475E-02,2.099103E-02
5.113853E+01,-2.206438E-02,2.131052E-02
5.117187E+01,-2.220753E-02,2.15776E-02
5.120521E+01,-2.190792E-02,2.172629E-02
5.123854E+01,-2.126708E-02,2.169645E-02
5.127188E+01,-2.039862E-02,2.160365E-02
5.130522E+01,-1.965812E-02,2.149091E-02
5.133855E+01,-1.92353E-02,2.148233E-02
5.137189E+01,-1.929855E-02,2.152893E-02
5.140523E+01,-1.975747E-02,2.174239E-02
5.143856E+01,-2.053701E-02,2.190575E-02
5.14719E+01,-2.135347E-02,2.201183E-02
5.150524E+01,-2.194471E-02,2.18693E-02
5.153857E+01,-2.214635E-02,2.154904E-02
5.157191E+01,-2.19229E-02,2.111665E-02
5.160525E+01,-2.139662E-02,2.072758E-02
5.163859E+01,-2.073259E-02,2.050185E-02
5.167192E+01,-2.015998E-02,2.055885E-02
5.170526E+01,-1.985429E-02,2.097063E-02
5.17386E+01,-1.986496E-02,2.160919E-02
5.177193E+01,-2.015288E-02,2.227027E-02
5.180527E+01,-2.056713E-02,2.27424E-02
5.183861E+01,-2.0966E-02,2.289977E-02
5.187194E+01,-2.122123E-02,2.264394E-02
5.190528E+01,-2.126456E-02,2.202688E-02
5.193862E+01,-2.11424E-02,2.121407E-02
5.197195E+01,-2.091757E-02,2.048841E-02
5.200529E+01,-2.074665E-02,2.004631E-02
5.203863E+01,-2.070734E-02,2.005173E-02
5.207196E+01,-2.081214E-02,2.051348E-02
5.21053E+01,-2.099543E-02,2.126385E-02
5.213864E+01,-2.112922E-02,2.206624E-02
5.217197E+01,-2.112075E-02,2.269333E-02
5.220531E+01,-2.094281E-02,2.292562E-02
5.223865E+01,-2.061326E-02,2.278046E-02
5.227198E+01,-2.024342E-02,2.225555E-02
5.230532E+01,-1.994408E-02,2.156146E-02
5.233866E+01,-1.992938E-02,2.091273E-02
5.237199E+01,-2.020938E-02,2.047623E-02
5.240533E+01,-2.072852E-02,2.041338E-02
5.243867E+01,-2.133679E-02,2.069989E-02
5.2472E+01,-2.181597E-02,2.115254E-02
5.250534E+01,-2.200077E-02,2.162922E-02
5.253868E+01,-2.179264E-02,2.200766E-02
5.257201E+01,-2.125741E-02,2.21356E-02
5.260535E+01,-2.052526E-02,2.204615E-02
5.263869E+01,-1.978454E-02,2.184833E-02
5.267202E+01,-1.931385E-02,2.159734E-02
5.270536E+01,-1.930358E-02,2.143258E-02
5.27387E+01,-1.971634E-02,2.140768E-02
5.277203E+01,-2.048645E-02,2.151752E-02
5.280537E+01,-2.128004E-02,2.161762E-02
5.283871E+01,-2.194173E-02,2.163447E-02
5.287204E+01,-2.222104E-02,2.159189E-02
5.290538E+01,-2.208624E-02,2.13707E-02
5.293872E+01,-2.156962E-02,2.112359E-02
5.297205E+01,-2.082094E-02,2.094115E-02
5.300539E+01,-2.013826E-02,2.091935E-02
5.303873E+01,-1.968738E-02,2.110837E-02
5.307206E+01,-1.955789E-02,2.15551E-02
5.31054E+01,-1.981907E-02,2.204355E-02
5.313874E+01,-2.03016E-02,2.251139E-02
5.317207E+01,-2.087907E-02,2.267808E-02
5.320541E+01,-2.130671E-02,2.253304E-02
5.323875E+01,-2.150957E-02,2.203359E-02
5.327208E+01,-2.1448E-02,2.137857E-02
5.330542E+01,-2.115943E-02,2.071412E-02
5.333876E+01,-2.082519E-02,2.024194E-02
5.337209E+01,-2.056344E-02,2.015447E-02
5.340543E+01,-2.046307E-02,2.050949E-02
5.343877E+01,-2.050466E-02,2.119325E-02
5.34721E+01,-2.064077E-02,2.198223E-02
5.350544E+01,-2.075821E-02,2.264728E-02
5.353878E+01,-2.07822E-02,2.29712E-02
5.357212E+01,-2.06892E-02,2.288288E-02
5.360545E+01,-2.051031E-02,2.238605E-02
5.363879E+01,-2.028187E-02,2.163675E-02
5.367213E+01,-2.0213E-02,2.09298E-02
5.370546E+01,-2.030889E-02,2.036924E-02
5.37388E+01,-2.061234E-02,2.019615E-02
5.377214E+01,-2.103791E-02,2.042276E-02
5.380547E+01,-2.143907E-02,2.097361E-02
5.383881E+01,-2.16441E-02,2.158908E-02
5.387215E+01,-2.158003E-02,2.211006E-02
5.390548E+01,-2.121612E-02,2.239354E-02
5.393882E+01,-2.062382E-02,2.238628E-02
5.397216E+01,-2.000493E-02,2.212167E-02
5.400549E+01,-1.95184E-02,2.173677E-02
5.403883E+01,-1.939905E-02,2.134232E-02
5.407217E+01,-1.968387E-02,2.108051E-02
5.41055E+01,-2.029312E-02,2.108137E-02
5.413884E+01,-2.108508E-02,2.121158E-02
5.417218E+01,-2.178914E-02,2.141333E-02
5.420551E+01,-2.21706E-02,2.152006E-02
5.423885E+01,-2.211979E-02,2.155557E-02
5.427219E+01,-2.167661E-02,2.148139E-02
5.430552E+01,-2.092921E-02,2.13448E-02
5.433886E+01,-2.013612E-02,2.122591E-02
5.43722E+01,-1.958397E-02,2.128345E-02
5.440553E+01,-1.939013E-02,2.148384E-02
5.443887E+01,-1.961376E-02,2.181497E-02
5.447221E+01,-2.016372E-02,2.212488E-02
5.450554E+01,-2.083064E-02,2.231548E-02
5.453888E+01,-2.144123E-02,2.230714E-02
5.457222E+01,-2.174826E-02,2.203449E-02
5.460555E+01,-2.175613E-02,2.152483E-02
5.463889E+01,-2.151108E-02,2.097445E-02
5.467223E+01,-2.105452E-02,2.053287E-02
5.470556E+01,-2.057115E-02,2.044302E-02
5.47389E+01,-2.024333E-02,2.0669E-02
5.477224E+01,-2.012197E-02,2.124362E-02
5.480557E+01,-2.028484E-02,2.197678E-02
5.483891E+01,-2.055271E-02,2.259465E-02
5.487225E+01,-2.07775E-02,2.299726E-02
5.490558E+01,-2.089247E-02,2.299204E-02
5.493892E+01,-2.088244E-02,2.258821E-02
5.497226E+01,-2.077479E-02,2.192539E-02
5.500559E+01,-2.062206E-02,2.113883E-02
5.503893E+01,-2.0554E-02,2.049931E-02
5.507227E+01,-2.063077E-02,2.02186E-02
5.51056E+01,-2.084769E-02,2.037953E-02
5.513894E+01,-2.112783E-02,2.089188E-02
5.517228E+01,-2.133261E-02,2.157607E-02
5.520561E+01,-2.133414E-02,2.222383E-02
5.523895E+01,-2.111802E-02,2.263114E-02
5.527229E+01,-2.07296E-02,2.269428E-02
5.530562E+01,-2.024206E-02,2.241428E-02
5.533896E+01,-1.980629E-02,2.190283E-02
5.53723E+01,-1.963502E-02,2.138321E-02
5.540563E+01,-1.978864E-02,2.09844E-02
5.543897E+01,-2.027418E-02,2.082138E-02
5.547231E+01,-2.09566E-02,2.089519E-02
5.550565E+01,-2.157627E-02,2.115225E-02
5.553898E+01,-2.200111E-02,2.143567E-02
5.557232E+01,-2.202053E-02,2.169474E-02
5.560566E+01,-2.164128E-02,2.178538E-02
5.563899E+01,-2.099878E-02,2.176728E-02
5.567233E+01,-2.024463E-02,2.167472E-02
5.570567E+01,-1.95994E-02,2.156216E-02
5.5739E+01,-1.933108E-02,2.154126E-02
5.577234E+01,-1.945576E-02,2.164045E-02
5.580568E+01,-2.000144E-02,2.182219E-02
5.583901E+01,-2.073847E-02,2.197051E-02
5.587235E+01,-2.142559E-02,2.201269E-02
5.590569E+01,-2.188566E-02,2.186004E-02
5.593902E+01,-2.19631E-02,2.15578E-02
5.597236E+01,-2.170952E-02,2.115089E-02
5.60057E+01,-2.117308E-02,2.080648E-02
5.603903E+01,-2.05561E-02,2.067297E-02
5.607237E+01,-2.007503E-02,2.079279E-02
5.610571E+01,-1.983087E-02,2.117513E-02
5.613904E+01,-1.988679E-02,2.172302E-02
5.617238E+01,-2.019038E-02,2.229655E-02
5.620572E+01,-2.058954E-02,2.268022E-02
5.623905E+01,-2.095114E-02,2.271733E-02
5.627239E+01,-2.115395E-02,2.241851E-02
5.630573E+01,-2.1147E-02,2.180788E-02
5.633906E+01,-2.100823E-02,2.111179E-02
5.63724E+01,-2.080479E-02,2.049161E-02
5.640574E+01,-2.069399E-02,2.016372E-02
5.643907E+01,-2.068297E-02,2.023986E-02
5.647241E+01,-2.080524E-02,2.07253E-02
5.650575E+01,-2.099034E-02,2.144048E-02
5.653908E+01,-2.109167E-02,2.214519E-02
5.657242E+01,-2.107097E-02,2.265181E-02
5.660576E+01,-2.087355E-02,2.279544E-02
5.663909E+01,-2.055902E-02,2.258895E-02
5.667243E+01,-2.023713E-02,2.208542E-02
5.670577E+01,-2.001905E-02,2.144933E-02
5.67391E+01,-2.00577E-02,2.087819E-02
5.677244E+01,-2.03478E-02,2.057339E-02
5.680578E+01,-2.084184E-02,2.058221E-02
5.683911E+01,-2.139615E-02,2.087811E-02
5.687245E+01,-2.177243E-02,2.131215E-02
5.690579E+01,-2.189873E-02,2.173992E-02
5.693912E+01,-2.16709E-02,2.200923E-02
5.697246E+01,-2.114357E-02,2.207589E-02
5.70058E+01,-2.045859E-02,2.199393E-02
5.703913E+01,-1.981631E-02,2.17498E-02
5.707247E+01,-1.944798E-02,2.149915E-02
5.710581E+01,-1.952529E-02,2.140695E-02
5.713914E+01,-1.993339E-02,2.141298E-02
5.717248E+01,-2.062484E-02,2.149148E-02
5.720582E+01,-2.135598E-02,2.162176E-02
5.723915E+01,-2.190298E-02,2.165448E-02
5.727249E+01,-2.211163E-02,2.16013E-02
5.730583E+01,-2.19053E-02,2.13923E-02
5.733916E+01,-2.138767E-02,2.116955E-02
5.73725E+01,-2.070271E-02,2.100602E-02
5.740584E+01,-2.007433E-02,2.100949E-02
5.743918E+01,-1.972204E-02,2.121919E-02
5.747251E+01,-1.971872E-02,2.162585E-02
5.750585E+01,-2.004639E-02,2.210136E-02
5.753919E+01,-2.054122E-02,2.244439E-02
5.757252E+01,-2.107219E-02,2.257275E-02
5.760586E+01,-2.143447E-02,2.241982E-02
5.76392E+01,-2.156623E-02,2.190305E-02
5.767253E+01,-2.142606E-02,2.129882E-02
5.770587E+01,-2.114928E-02,2.071628E-02
5.773921E+01,-2.081458E-02,2.036921E-02
5.777254E+01,-2.059399E-02,2.034973E-02
5.780588E+01,-2.052377E-02,2.072923E-02
5.783922E+01,-2.056613E-02,2.136909E-02
5.787255E+01,-2.07296E-02,2.211057E-02
5.790589E+01,-2.084207E-02,2.266687E-02
5.793923E+01,-2.087034E-02,2.288593E-02
5.797256E+01,-2.078646E-02,2.271236E-02
5.80059E+01,-2.058556E-02,2.222166E-02
5.803924E+01,-2.041499E-02,2.155824E-02
5.807257E+01,-2.03512E-02,2.089344E-02
5.810591E+01,-2.045039E-02,2.045157E-02
5.813925E+01,-2.073923E-02,2.038973E-02
5.817258E+01,-2.11129E-02,2.063768E-02
5.820592E+01,-2.145798E-02,2.11386E-02
5.823926E+01,-2.157533E-02,2.170652E-02
5.827259E+01,-2.146351E-02,2.217114E-02
5.830593E+01,-2.108504E-02,2.240219E-02
5.833927E+01,-2.053304E-02,2.232347E-02
5.83726E+01,-2.001405E-02,2.207068E-02
5.840594E+01,-1.964852E-02,2.168056E-02
5.843928E+01,-1.961522E-02,2.133755E-02
5.847261E+01,-1.993187E-02,2.115067E-02
5.850595E+01,-2.053703E-02,2.114469E-02
5.853929E+01,-2.124424E-02,2.127616E-02
5.857262E+01,-2.180992E-02,2.144525E-02
5.860596E+01,-2.208796E-02,2.154007E-02
5.86393E+01,-2.195234E-02,2.156111E-02
5.867263E+01,-2.146775E-02,2.148167E-02
5.870597E+01,-2.076123E-02,2.13431E-02
5.873931E+01,-2.007562E-02,2.125675E-02
5.877264E+01,-1.96088E-02,2.129518E-02
5.880598E+01,-1.950686E-02,2.150387E-02
5.883932E+01,-1.978891E-02,2.179875E-02
5.887265E+01,-2.031421E-02,2.208307E-02
5.890599E+01,-2.094293E-02,2.221921E-02
5.893933E+01,-2.146765E-02,2.21504E-02
5.897266E+01,-2.171092E-02,2.183192E-02
5.9006E+01,-2.164146E-02,2.134594E-02
5.903934E+01,-2.134799E-02,2.084075E-02
5.907267E+01,-2.092284E-02,2.049861E-02
5.910601E+01,-2.047941E-02,2.045739E-02
5.913935E+01,-2.021723E-02,2.073327E-02
5.917268E+01,-2.017706E-02,2.128489E-02
5.920602E+01,-2.032022E-02,2.194306E-02
5.923936E+01,-2.056279E-02,2.248574E-02
5.927269E+01,-2.080922E-02,2.276759E-02
5.930603E+01,-2.092331E-02,2.270792E-02
5.933937E+01,-2.088416E-02,2.224208E-02
5.93727E+01,-2.077208E-02,2.15824E-02
5.940604E+01,-2.06183E-02,2.088605E-02
5.943938E+01,-2.05796E-02,2.038097E-02
5.947272E+01,-2.064519E-02,2.022399E-02
5.950605E+01,-2.083244E-02,2.046262E-02
5.953939E+01,-2.107707E-02,2.099186E-02
5.957273E+01,-2.128008E-02,2.164876E-02
5.960606E+01,-2.127809E-02,2.221952E-02
5.96394E+01,-2.105227E-02,2.255653E-02
5.967274E+01,-2.066079E-02,2.252268E-02
5.970607E+01,-2.020137E-02,2.221904E-02
5.973941E+01,-1.987352E-02,2.174037E-02
5.977275E+01,-1.977667E-02,2.124611E-02
5.980608E+01,-1.997534E-02,2.092654E-02
5.983942E+01,-2.043785E-02,2.081209E-02
5.987276E+01,-2.103548E-02,2.092917E-02
5.990609E+01,-2.157007E-02,2.117608E-02
5.993943E+01,-2.187371E-02,2.143918E-02
5.997277E+01,-2.182782E-02,2.168362E-02
6.00061E+01,-2.141709E-02,2.174525E-02
6.003944E+01,-2.079847E-02,2.169692E-02
6.007278E+01,-2.008977E-02,2.156242E-02
6.010611E+01,-1.958179E-02,2.146961E-02
6.013945E+01,-1.942251E-02,2.142378E-02
6.017279E+01,-1.960854E-02,2.151724E-02
6.020612E+01,-2.015792E-02,2.169865E-02
6.023946E+01,-2.085202E-02,2.182824E-02
6.02728E+01,-2.144921E-02,2.184845E-02
6.030613E+01,-2.178782E-02,2.170732E-02
6.033947E+01,-2.183079E-02,2.142448E-02
6.037281E+01,-2.152721E-02,2.108253E-02
6.040614E+01,-2.101961E-02,2.082782E-02
6.043948E+01,-2.047258E-02,2.074706E-02
6.047282E+01,-2.006122E-02,2.088017E-02
6.050615E+01,-1.989847E-02,2.124878E-02
6.053949E+01,-2.001505E-02,2.182253E-02
6.057283E+01,-2.033349E-02,2.23184E-02
6.060616E+01,-2.070957E-02,2.263666E-02
6.06395E+01,-2.101873E-02,2.263316E-02
6.067284E+01,-2.115255E-02,2.229877E-02
6.070617E+01,-2.111244E-02,2.168469E-02
6.073951E+01,-2.097918E-02,2.104971E-02
6.077285E+01,-2.077458E-02,2.049955E-02
6.080618E+01,-2.064489E-02,2.02784E-02
6.083952E+01,-2.063043E-02,2.046696E-02
6.087286E+01,-2.073387E-02,2.095509E-02
6.090619E+01,-2.0876E-02,2.16153E-02
6.093953E+01,-2.096056E-02,2.22403E-02
6.097287E+01,-2.094177E-02,2.263581E-02
6.10062E+01,-2.078544E-02,2.268839E-02
6.103954E+01,-2.048804E-02,2.23947E-02
6.107288E+01,-2.020731E-02,2.186699E-02
6.110621E+01,-2.006581E-02,2.126179E-02
6.113955E+01,-2.013809E-02,2.079008E-02
6.117289E+01,-2.04477E-02,2.057266E-02
6.120622E+01,-2.090414E-02,2.065674E-02
6.123956E+01,-2.136881E-02,2.09386E-02
6.12729E+01,-2.168232E-02,2.140293E-02
6.130623E+01,-2.171103E-02,2.180681E-02
6.133957E+01,-2.141773E-02,2.205787E-02
6.137291E+01,-2.088653E-02,2.209985E-02
6.140625E+01,-2.028121E-02,2.196403E-02
6.143958E+01,-1.978258E-02,2.172639E-02
6.147292E+01,-1.951533E-02,2.150825E-02
6.150626E+01,-1.963573E-02,2.144422E-02
6.153959E+01,-2.009318E-02,2.143273E-02
6.157293E+01,-2.073661E-02,2.151712E-02
6.160627E+01,-2.138391E-02,2.161743E-02
6.16396E+01,-2.183606E-02,2.160927E-02
6.167294E+01,-2.193793E-02,2.152102E-02
6.170628E+01,-2.167983E-02,2.134641E-02
6.173961E+01,-2.113625E-02,2.113223E-02
6.177295E+01,-2.050381E-02,2.102437E-02
6.180629E+01,-1.997039E-02,2.104191E-02
6.183962E+01,-1.967418E-02,2.127921E-02
6.187296E+01,-1.973928E-02,2.162268E-02
6.19063E+01,-2.008686E-02,2.207808E-02
6.193963E+01,-2.05576E-02,2.236585E-02
6.197297E+01,-2.104561E-02,2.239064E-02
6.200631E+01,-2.131949E-02,2.214967E-02
6.203964E+01,-2.137988E-02,2.167434E-02
6.207298E+01,-2.126053E-02,2.113656E-02
6.210632E+01,-2.098232E-02,2.06497E-02
6.213965E+01,-2.070437E-02,2.036624E-02
6.217299E+01,-2.049341E-02,2.042577E-02
6.220633E+01,-2.044132E-02,2.08778E-02
6.223966E+01,-2.054097E-02,2.148848E-02
6.2273E+01,-2.07018E-02,2.213377E-02
6.230634E+01,-2.084505E-02,2.25763E-02
6.233967E+01,-2.08511E-02,2.272463E-02
6.237301E+01,-2.076658E-02,2.253805E-02
6.240635E+01,-2.05842E-02,2.20106E-02
6.243968E+01,-2.043451E-02,2.136836E-02
6.247302E+01,-2.041034E-02,2.082233E-02
6.250636E+01,-2.054968E-02,2.049948E-02
6.253969E+01,-2.082705E-02,2.050418E-02
6.257303E+01,-2.116864E-02,2.081985E-02
6.260637E+01,-2.142817E-02,2.133475E-02
6.26397E+01,-2.1525E-02,2.182109E-02
6.267304E+01,-2.138805E-02,2.216947E-02
6.270638E+01,-2.101341E-02,2.233399E-02
6.273971E+01,-2.048819E-02,2.223514E-02
6.277305E+01,-2.00062E-02,2.194019E-02
6.280639E+01,-1.974938E-02,2.157946E-02
6.283972E+01,-1.976743E-02,2.130068E-02
6.287306E+01,-2.011752E-02,2.115971E-02
6.29064E+01,-2.068164E-02,2.117843E-02
6.293973E+01,-2.130921E-02,2.131243E-02
6.297307E+01,-2.17593E-02,2.144781E-02
6.300641E+01,-2.194586E-02,2.154571E-02
6.303974E+01,-2.176922E-02,2.157776E-02
6.307308E+01,-2.128318E-02,2.148364E-02
6.310642E+01,-2.064148E-02,2.139725E-02
6.313975E+01,-2.001866E-02,2.135384E-02
6.317309E+01,-1.968945E-02,2.140951E-02
6.320643E+01,-1.963858E-02,2.159223E-02
6.323976E+01,-1.994663E-02,2.183403E-02
6.32731E+01,-2.046136E-02,2.205321E-02
6.330644E+01,-2.102011E-02,2.21486E-02
6.333978E+01,-2.144488E-02,2.204553E-02
6.337311E+01,-2.159883E-02,2.174952E-02
6.340645E+01,-2.14863E-02,2.130599E-02
6.343979E+01,-2.117732E-02,2.089448E-02
6.347312E+01,-2.073213E-02,2.061362E-02
6.350646E+01,-2.036732E-02,2.060891E-02
6.35398E+01,-2.016794E-02,2.091052E-02
6.357313E+01,-2.017758E-02,2.14208E-02
6.360647E+01,-2.036569E-02,2.199408E-02
6.363981E+01,-2.05876E-02,2.245117E-02
6.367314E+01,-2.079139E-02,2.266506E-02
6.370648E+01,-2.085657E-02,2.2501E-02
6.373982E+01,-2.084085E-02,2.204253E-02
6.377315E+01,-2.072998E-02,2.144583E-02
6.380649E+01,-2.06086E-02,2.086284E-02
6.383983E+01,-2.057743E-02,2.04624E-02
6.387316E+01,-2.06438E-02,2.040784E-02
6.39065E+01,-2.083907E-02,2.07001E-02
6.393984E+01,-2.105083E-02,2.124773E-02
6.397317E+01,-2.116361E-02,2.183183E-02
6.400651E+01,-2.113316E-02,2.232262E-02
6.403985E+01,-2.092134E-02,2.256282E-02
6.407318E+01,-2.056484E-02,2.246343E-02
6.410652E+01,-2.020796E-02,2.215261E-02
6.413986E+01,-1.993065E-02,2.166385E-02
6.417319E+01,-1.989077E-02,2.124525E-02
6.420653E+01,-2.013854E-02,2.09687E-02
6.423987E+01,-2.058341E-02,2.095345E-02
6.42732E+01,-2.115466E-02,2.108622E-02
6.430654E+01,-2.160981E-02,2.137628E-02
6.433988E+01,-2.180672E-02,2.16381E-02
6.437321E+01,-2.170702E-02,2.184097E-02
6.440655E+01,-2.128735E-02,2.187104E-02
6.443989E+01,-2.0691E-02,2.179224E-02
6.447322E+01,-2.010722E-02,2.165453E-02
6.450656E+01,-1.967146E-02,2.156926E-02
6.45399E+01,-1.956367E-02,2.153813E-02
6.457323E+01,-1.980901E-02,2.162871E-02
6.460657E+01,-2.031442E-02,2.178595E-02
6.463991E+01,-2.096208E-02,2.188992E-02
6.467324E+01,-2.148778E-02,2.186174E-02
6.470658E+01,-2.177482E-02,2.171387E-02
6.473992E+01,-2.172165E-02,2.14614E-02
6.477325E+01,-2.140055E-02,2.114597E-02
6.480659E+01,-2.088548E-02,2.090089E-02
6.483993E+01,-2.037544E-02,2.083878E-02
6.487326E+01,-2.003814E-02,2.101962E-02
6.49066E+01,-1.995816E-02,2.139044E-02
6.493994E+01,-2.009511E-02,2.186932E-02
6.497327E+01,-2.040312E-02,2.227571E-02
6.500661E+01,-2.076748E-02,2.248383E-02
6.503995E+01,-2.102268E-02,2.242707E-02
6.507328E+01,-2.11198E-02,2.205421E-02
6.510662E+01,-2.107531E-02,2.151533E-02
6.513996E+01,-2.092803E-02,2.097047E-02
6.517329E+01,-2.071501E-02,2.054121E-02
6.520663E+01,-2.062241E-02,2.045076E-02
6.523997E+01,-2.061812E-02,2.06798E-02
6.527331E+01,-2.072558E-02,2.117953E-02
6.530664E+01,-2.086391E-02,2.178391E-02
6.533998E+01,-2.093468E-02,2.233238E-02
6.537332E+01,-2.087324E-02,2.263796E-02
6.540665E+01,-2.070997E-02,2.263431E-02
6.543999E+01,-2.047564E-02,2.231992E-02
6.547333E+01,-2.022714E-02,2.182761E-02
6.550666E+01,-2.013859E-02,2.127619E-02
6.554E+01,-2.023143E-02,2.088927E-02
6.557334E+01,-2.050555E-02,2.074289E-02
6.560667E+01,-2.092127E-02,2.084457E-02
6.564001E+01,-2.131438E-02,2.116723E-02
6.567335E+01,-2.155022E-02,2.154457E-02
6.570668E+01,-2.152878E-02,2.188147E-02
6.574002E+01,-2.124498E-02,2.206629E-02
6.577336E+01,-2.075431E-02,2.205749E-02
6.580669E+01,-2.021307E-02,2.18959E-02
6.584003E+01,-1.978084E-02,2.169683E-02
6.587337E+01,-1.96273E-02,2.149797E-02
6.59067E+01,-1.979745E-02,2.143669E-02
6.594004E+01,-2.027155E-02,2.14532E-02
6.597338E+01,-2.089336E-02,2.153894E-02
6.600671E+01,-2.143162E-02,2.163353E-02
6.604005E+01,-2.178468E-02,2.166259E-02
6.607339E+01,-2.180101E-02,2.160797E-02
6.610672E+01,-2.152017E-02,2.141537E-02
6.614006E+01,-2.099977E-02,2.124516E-02
6.61734E+01,-2.044382E-02,2.115073E-02
6.620673E+01,-2.001837E-02,2.118242E-02
6.624007E+01,-1.983005E-02,2.13891E-02
6.627341E+01,-1.992507E-02,2.174289E-02
6.630674E+01,-2.026471E-02,2.207198E-02
6.634008E+01,-2.073819E-02,2.229026E-02
6.637342E+01,-2.112317E-02,2.226626E-02
6.640675E+01,-2.137689E-02,2.200417E-02
6.644009E+01,-2.139862E-02,2.156724E-02
6.647343E+01,-2.123614E-02,2.10507E-02
6.650676E+01,-2.096591E-02,2.062892E-02
6.65401E+01,-2.069531E-02,2.044935E-02
6.657344E+01,-2.053076E-02,2.060815E-02
6.660677E+01,-2.053837E-02,2.102714E-02
6.664011E+01,-2.064527E-02,2.160423E-02
6.667345E+01,-2.077206E-02,2.212549E-02
6.670678E+01,-2.086374E-02,2.249869E-02
6.674012E+01,-2.087286E-02,2.254007E-02
6.677346E+01,-2.076021E-02,2.226365E-02
6.680679E+01,-2.060013E-02,2.175122E-02
6.684013E+01,-2.0468E-02,2.116466E-02
6.687347E+01,-2.045485E-02,2.06781E-02
6.69068E+01,-2.057285E-02,2.049149E-02
6.694014E+01,-2.084683E-02,2.055139E-02
6.697348E+01,-2.114811E-02,2.091249E-02
6.700681E+01,-2.13804E-02,2.138102E-02
6.704015E+01,-2.142489E-02,2.186518E-02
6.707349E+01,-2.12535E-02,2.214588E-02
6.710682E+01,-2.088151E-02,2.21964E-02
6.714016E+01,-2.043563E-02,2.206953E-02
6.71735E+01,-2.003921E-02,2.178221E-02
6.720684E+01,-1.984206E-02,2.147593E-02
6.724017E+01,-1.990312E-02,2.117998E-02
6.727351E+01,-2.026808E-02,2.110709E-02
6.730685E+01,-2.083098E-02,2.116991E-02
6.734018E+01,-2.138529E-02,2.131892E-02
6.737352E+01,-2.17519E-02,2.147838E-02
6.740686E+01,-2.182153E-02,2.1531E-02
6.744019E+01,-2.158864E-02,2.154335E-02
6.747353E+01,-2.10684E-02,2.148486E-02
6.750687E+01,-2.048646E-02,2.141023E-02
6.75402E+01,-1.994576E-02,2.134562E-02
6.757354E+01,-1.967932E-02,2.139237E-02
6.760688E+01,-1.972003E-02,2.15632E-02
6.764021E+01,-2.008716E-02,2.179392E-02
6.767355E+01,-2.059728E-02,2.199817E-02
6.770689E+01,-2.109395E-02,2.203824E-02
6.774022E+01,-2.145653E-02,2.193992E-02
6.777356E+01,-2.154171E-02,2.164983E-02
6.78069E+01,-2.141401E-02,2.125139E-02
6.784023E+01,-2.105971E-02,2.092418E-02
6.787357E+01,-2.065335E-02,2.070306E-02
6.790691E+01,-2.0322E-02,2.076506E-02
6.794024E+01,-2.018036E-02,2.107219E-02
6.797358E+01,-2.021526E-02,2.155469E-02
6.800692E+01,-2.041002E-02,2.206145E-02
6.804025E+01,-2.067223E-02,2.243206E-02
6.807359E+01,-2.085934E-02,2.252544E-02
6.810693E+01,-2.092941E-02,2.23447E-02
6.814026E+01,-2.086958E-02,2.188068E-02
6.81736E+01,-2.074478E-02,2.128657E-02
6.820694E+01,-2.061855E-02,2.07741E-02
6.824027E+01,-2.05842E-02,2.048223E-02
6.827361E+01,-2.068424E-02,2.047262E-02
6.830695E+01,-2.08632E-02,2.079017E-02
6.834028E+01,-2.103032E-02,2.127686E-02
6.837362E+01,-2.112843E-02,2.182347E-02
6.840696E+01,-2.109489E-02,2.220863E-02
6.844029E+01,-2.088897E-02,2.235784E-02
6.847363E+01,-2.057265E-02,2.2264E-02
6.850697E+01,-2.026544E-02,2.192202E-02
6.85403E+01,-2.006253E-02,2.148999E-02
6.857364E+01,-2.005612E-02,2.113375E-02
6.860698E+01,-2.029082E-02,2.093049E-02
6.864031E+01,-2.073208E-02,2.090733E-02
6.867365E+01,-2.120333E-02,2.108593E-02
6.870699E+01,-2.15567E-02,2.138124E-02
6.874032E+01,-2.169117E-02,2.164334E-02
6.877366E+01,-2.154631E-02,2.17958E-02
6.8807E+01,-2.113355E-02,2.182533E-02
6.884033E+01,-2.057948E-02,2.172096E-02
6.887367E+01,-2.006038E-02,2.159925E-02
6.890701E+01,-1.976073E-02,2.148524E-02
6.894034E+01,-1.974062E-02,2.151573E-02
6.897368E+01,-2.004598E-02,2.160668E-02
6.900702E+01,-2.055228E-02,2.170345E-02
6.904035E+01,-2.110983E-02,2.179426E-02
6.907369E+01,-2.155419E-02,2.179887E-02
6.910703E+01,-2.172898E-02,2.165523E-02
6.914037E+01,-2.160978E-02,2.142773E-02
6.91737E+01,-2.122365E-02,2.115266E-02
6.920704E+01,-2.076417E-02,2.09736E-02
6.924038E+01,-2.03263E-02,2.097401E-02
6.927371E+01,-2.005131E-02,2.11731E-02
6.930705E+01,-2.003257E-02,2.151771E-02
6.934039E+01,-2.022878E-02,2.194968E-02
6.937372E+01,-2.051643E-02,2.230417E-02
6.940706E+01,-2.084629E-02,2.245614E-02
6.94404E+01,-2.105685E-02,2.235348E-02
6.947373E+01,-2.111152E-02,2.199093E-02
6.950707E+01,-2.103141E-02,2.146995E-02
6.954041E+01,-2.085018E-02,2.094489E-02
6.957374E+01,-2.069667E-02,2.062916E-02
6.960708E+01,-2.061832E-02,2.057199E-02
6.964042E+01,-2.062073E-02,2.08548E-02
6.967375E+01,-2.072549E-02,2.130816E-02
6.970709E+01,-2.084736E-02,2.186245E-02
6.974043E+01,-2.092093E-02,2.231248E-02
6.977376E+01,-2.084709E-02,2.253527E-02
6.98071E+01,-2.069468E-02,2.245209E-02
6.984044E+01,-2.048276E-02,2.21244E-02
6.987377E+01,-2.029686E-02,2.163507E-02
6.990711E+01,-2.024399E-02,2.116639E-02
6.994045E+01,-2.033729E-02,2.084982E-02
6.997378E+01,-2.061541E-02,2.078248E-02
7.000712E+01,-2.099493E-02,2.09176E-02
7.004046E+01,-2.133791E-02,2.123568E-02
7.007379E+01,-2.149738E-02,2.162171E-02
7.010713E+01,-2.146182E-02,2.193668E-02
7.014047E+01,-2.1124E-02,2.206739E-02
7.01738E+01,-2.066155E-02,2.204389E-02
7.020714E+01,-2.017208E-02,2.186478E-02
7.024048E+01,-1.98275E-02,2.161601E-02
7.027381E+01,-1.9741E-02,2.143304E-02
7.030715E+01,-1.997043E-02,2.137233E-02
7.034049E+01,-2.041733E-02,2.142249E-02
7.037382E+01,-2.098176E-02,2.151587E-02
7.040716E+01,-2.146482E-02,2.160585E-02
7.04405E+01,-2.168164E-02,2.158696E-02
7.047383E+01,-2.165718E-02,2.152489E-02
7.050717E+01,-2.134062E-02,2.13954E-02
7.054051E+01,-2.0815E-02,2.124418E-02
7.057384E+01,-2.032973E-02,2.117668E-02
7.060718E+01,-1.996362E-02,2.124397E-02
7.064052E+01,-1.98552E-02,2.148081E-02
7.067385E+01,-2.003555E-02,2.174672E-02
7.070719E+01,-2.041763E-02,2.200139E-02
7.074053E+01,-2.084482E-02,2.21586E-02
7.077386E+01,-2.120986E-02,2.210473E-02
7.08072E+01,-2.138644E-02,2.185477E-02
7.084054E+01,-2.137428E-02,2.143633E-02
7.087387E+01,-2.116683E-02,2.100452E-02
7.090721E+01,-2.087592E-02,2.067946E-02
7.094055E+01,-2.062075E-02,2.059642E-02
7.097388E+01,-2.047525E-02,2.080283E-02
7.100722E+01,-2.046755E-02,2.123415E-02
7.104056E+01,-2.059757E-02,2.176524E-02
7.10739E+01,-2.073496E-02,2.225739E-02
7.110723E+01,-2.083976E-02,2.248986E-02
7.114057E+01,-2.084952E-02,2.249403E-02
7.117391E+01,-2.074727E-02,2.219731E-02
7.120724E+01,-2.060396E-02,2.171898E-02
7.124058E+01,-2.04964E-02,2.117862E-02
7.127392E+01,-2.048179E-02,2.078543E-02
7.130725E+01,-2.059851E-02,2.062141E-02
7.134059E+01,-2.082639E-02,2.073581E-02
7.137393E+01,-2.111695E-02,2.108397E-02
7.140726E+01,-2.129167E-02,2.154847E-02
7.14406E+01,-2.128488E-02,2.195971E-02
7.147394E+01,-2.110231E-02,2.218233E-02
7.150727E+01,-2.076595E-02,2.220863E-02
7.154061E+01,-2.034447E-02,2.205454E-02
7.157395E+01,-2.000351E-02,2.178644E-02
7.160728E+01,-1.991091E-02,2.146195E-02
7.164062E+01,-2.003128E-02,2.124186E-02
7.167396E+01,-2.042278E-02,2.119979E-02
7.170729E+01,-2.09029E-02,2.126349E-02
7.174063E+01,-2.13792E-02,2.141121E-02
7.177397E+01,-2.165731E-02,2.156451E-02
7.18073E+01,-2.169227E-02,2.162402E-02
7.184064E+01,-2.14168E-02,2.163502E-02
7.187398E+01,-2.092838E-02,2.157313E-02
7.190731E+01,-2.038349E-02,2.146863E-02
7.194065E+01,-1.994227E-02,2.141003E-02
7.197399E+01,-1.976723E-02,2.147853E-02
7.200732E+01,-1.987945E-02,2.159998E-02
7.204066E+01,-2.024648E-02,2.178867E-02
7.2074E+01,-2.069107E-02,2.195801E-02
7.210733E+01,-2.113984E-02,2.195975E-02
7.214067E+01,-2.143429E-02,2.183434E-02
7.217401E+01,-2.144912E-02,2.155096E-02
7.220734E+01,-2.126535E-02,2.121374E-02
7.224068E+01,-2.09312E-02,2.094579E-02
7.227402E+01,-2.054978E-02,2.082415E-02
7.230735E+01,-2.031945E-02,2.094782E-02
7.234069E+01,-2.021248E-02,2.126382E-02
7.237403E+01,-2.027988E-02,2.172249E-02
7.240736E+01,-2.048204E-02,2.21526E-02
7.24407E+01,-2.070897E-02,2.240619E-02
7.247404E+01,-2.08737E-02,2.241821E-02
7.250737E+01,-2.091377E-02,2.215588E-02
7.254071E+01,-2.084886E-02,2.17287E-02
7.257405E+01,-2.07379E-02,2.121529E-02
7.260738E+01,-2.062953E-02,2.078929E-02
7.264072E+01,-2.059042E-02,2.055647E-02
7.267406E+01,-2.068164E-02,2.063787E-02
7.270739E+01,-2.08561E-02,2.096479E-02
7.274073E+01,-2.101301E-02,2.146243E-02
7.277407E+01,-2.108197E-02,2.191793E-02
7.28074E+01,-2.103214E-02,2.225774E-02
7.284074E+01,-2.080754E-02,2.233034E-02
7.287408E+01,-2.054487E-02,2.21725E-02
7.290741E+01,-2.029403E-02,2.185137E-02
7.294075E+01,-2.013465E-02,2.144332E-02
7.297409E+01,-2.019091E-02,2.111825E-02
7.300742E+01,-2.044034E-02,2.096434E-02
7.304076E+01,-2.08436E-02,2.101657E-02
7.30741E+01,-2.128024E-02,2.120462E-02
7.310744E+01,-2.156513E-02,2.144139E-02
7.314077E+01,-2.162509E-02,2.164922E-02
7.317411E+01,-2.145293E-02,2.174991E-02
7.320745E+01,-2.101716E-02,2.174849E-02
7.324078E+01,-2.052168E-02,2.16468E-02
7.327412E+01,-2.004873E-02,2.153469E-02
7.330746E+01,-1.98146E-02,2.144923E-02
7.334079E+01,-1.984849E-02,2.144177E-02
7.337413E+01,-2.018402E-02,2.150538E-02
7.340747E+01,-2.067039E-02,2.164888E-02
7.34408E+01,-2.117896E-02,2.171756E-02
7.347414E+01,-2.15267E-02,2.170486E-02
7.350748E+01,-2.164373E-02,2.156021E-02
7.354081E+01,-2.150009E-02,2.135045E-02
7.357415E+01,-2.115771E-02,2.114741E-02
7.360749E+01,-2.069376E-02,2.101008E-02
7.364082E+01,-2.033058E-02,2.102639E-02
7.367416E+01,-2.011991E-02,2.12344E-02
7.37075E+01,-2.015317E-02,2.155093E-02
7.374083E+01,-2.037466E-02,2.195364E-02
7.377417E+01,-2.066511E-02,2.221464E-02
7.380751E+01,-2.096478E-02,2.232487E-02
7.384084E+01,-2.115958E-02,2.217455E-02
7.387418E+01,-2.116735E-02,2.182619E-02
7.390752E+01,-2.10474E-02,2.134568E-02
7.394085E+01,-2.086316E-02,2.090921E-02
7.397419E+01,-2.06957E-02,2.065519E-02
7.400753E+01,-2.062952E-02,2.064251E-02
7.404086E+01,-2.064679E-02,2.090107E-02
7.40742E+01,-2.07342E-02,2.137803E-02
7.410754E+01,-2.084147E-02,2.190189E-02
7.414087E+01,-2.088248E-02,2.227551E-02
7.417421E+01,-2.082183E-02,2.242139E-02
7.420755E+01,-2.06998E-02,2.226449E-02
7.424088E+01,-2.050901E-02,2.192234E-02
7.427422E+01,-2.033188E-02,2.146399E-02
7.430756E+01,-2.030989E-02,2.104176E-02
7.434089E+01,-2.043183E-02,2.07823E-02
7.437423E+01,-2.0714E-02,2.075925E-02
7.440757E+01,-2.105213E-02,2.095481E-02
7.44409E+01,-2.131106E-02,2.128652E-02
7.447424E+01,-2.141641E-02,2.162282E-02
7.450758E+01,-2.130873E-02,2.189634E-02
7.454091E+01,-2.100053E-02,2.199165E-02
7.457425E+01,-2.055635E-02,2.192987E-02
7.460759E+01,-2.015933E-02,2.174923E-02
7.464092E+01,-1.990941E-02,2.152265E-02
7.467426E+01,-1.989922E-02,2.138573E-02
7.47076E+01,-2.013044E-02,2.137197E-02
7.474093E+01,-2.060202E-02,2.140931E-02
7.477427E+01,-2.108946E-02,2.153428E-02
7.480761E+01,-2.150051E-02,2.160856E-02
7.484094E+01,-2.167381E-02,2.158582E-02
7.487428E+01,-2.156472E-02,2.153236E-02
7.490762E+01,-2.124834E-02,2.135747E-02
7.494095E+01,-2.075627E-02,2.127584E-02
7.497429E+01,-2.029451E-02,2.123762E-02
7.500763E+01,-2.002624E-02,2.130701E-02
7.504097E+01,-1.999147E-02,2.152484E-02
7.50743E+01,-2.019725E-02,2.179461E-02
7.510764E+01,-2.056521E-02,2.205899E-02
7.514098E+01,-2.09514E-02,2.215487E-02
7.517431E+01,-2.12701E-02,2.207196E-02
7.520765E+01,-2.13768E-02,2.182067E-02
7.524099E+01,-2.130546E-02,2.144163E-02
7.527432E+01,-2.108397E-02,2.10519E-02
7.530766E+01,-2.084974E-02,2.07504E-02
7.5341E+01,-2.062059E-02,2.072161E-02
7.537433E+01,-2.049337E-02,2.09406E-02
7.540767E+01,-2.050274E-02,2.1355E-02
7.544101E+01,-2.06098E-02,2.18625E-02
7.547434E+01,-2.073862E-02,2.223088E-02
7.550768E+01,-2.082345E-02,2.242947E-02
7.554102E+01,-2.083932E-02,2.232659E-02
7.557435E+01,-2.074674E-02,2.203313E-02
7.560769E+01,-2.061941E-02,2.157562E-02
7.564103E+01,-2.051387E-02,2.111689E-02
7.567436E+01,-2.04967E-02,2.079776E-02
7.57077E+01,-2.062119E-02,2.070548E-02
7.574104E+01,-2.084143E-02,2.087861E-02
7.577437E+01,-2.108274E-02,2.123181E-02
7.580771E+01,-2.121274E-02,2.166745E-02
7.584105E+01,-2.123175E-02,2.201161E-02
7.587438E+01,-2.103622E-02,2.215699E-02
7.590772E+01,-2.070957E-02,2.210285E-02
7.594106E+01,-2.034704E-02,2.189923E-02
7.597439E+01,-2.006115E-02,2.162475E-02
7.600773E+01,-1.99923E-02,2.138344E-02
7.604107E+01,-2.017154E-02,2.121366E-02
7.60744E+01,-2.054555E-02,2.123571E-02
7.610774E+01,-2.099614E-02,2.133362E-02
7.614108E+01,-2.139958E-02,2.146366E-02
7.617441E+01,-2.162344E-02,2.158792E-02
7.620775E+01,-2.159432E-02,2.164803E-02
7.624109E+01,-2.129085E-02,2.164384E-02
7.627442E+01,-2.083136E-02,2.157019E-02
7.630776E+01,-2.036241E-02,2.147525E-02
7.63411E+01,-2.001609E-02,2.142013E-02
7.637443E+01,-1.990669E-02,2.148E-02
7.640777E+01,-2.006133E-02,2.15893E-02
7.644111E+01,-2.040761E-02,2.175556E-02
7.647444E+01,-2.087002E-02,2.1887E-02
7.650778E+01,-2.126377E-02,2.187553E-02
7.654112E+01,-2.145705E-02,2.17231E-02
7.657445E+01,-2.142957E-02,2.146631E-02
7.660779E+01,-2.121327E-02,2.114593E-02
7.664113E+01,-2.08884E-02,2.090233E-02
7.667446E+01,-2.056216E-02,2.081964E-02
7.67078E+01,-2.034471E-02,2.095736E-02
7.674114E+01,-2.029453E-02,2.129749E-02
7.677447E+01,-2.042298E-02,2.169892E-02
7.680781E+01,-2.0611E-02,2.20772E-02
7.684115E+01,-2.080158E-02,2.231006E-02
7.687448E+01,-2.095873E-02,2.232211E-02
7.690782E+01,-2.099712E-02,2.209049E-02
7.694116E+01,-2.092231E-02,2.163873E-02
7.69745E+01,-2.076918E-02,2.119001E-02
7.700783E+01,-2.06658E-02,2.083258E-02
7.704117E+01,-2.067469E-02,2.071336E-02
7.707451E+01,-2.076799E-02,2.082189E-02
7.710784E+01,-2.088548E-02,2.118578E-02
7.714118E+01,-2.101076E-02,2.161888E-02
7.717452E+01,-2.105076E-02,2.201099E-02
7.720785E+01,-2.096546E-02,2.223737E-02
7.724119E+01,-2.078171E-02,2.225031E-02
7.727453E+01,-2.050936E-02,2.204934E-02
7.730786E+01,-2.025102E-02,2.174837E-02
7.73412E+01,-2.013513E-02,2.134296E-02
7.737454E+01,-2.021637E-02,2.104306E-02
7.740787E+01,-2.046689E-02,2.094111E-02
7.744121E+01,-2.082811E-02,2.102671E-02
7.747455E+01,-2.122899E-02,2.124281E-02
7.750788E+01,-2.147179E-02,2.14996E-02
7.754122E+01,-2.145862E-02,2.172071E-02
7.757456E+01,-2.122995E-02,2.178706E-02
7.760789E+01,-2.085814E-02,2.178999E-02
7.764123E+01,-2.04043E-02,2.17044E-02
7.767457E+01,-2.005512E-02,2.156734E-02
7.77079E+01,-1.989371E-02,2.150439E-02
7.774124E+01,-1.999595E-02,2.15166E-02
7.777458E+01,-2.034636E-02,2.157828E-02
7.780791E+01,-2.077413E-02,2.168342E-02
7.784125E+01,-2.118169E-02,2.175071E-02
7.787459E+01,-2.145039E-02,2.170033E-02
7.790792E+01,-2.149553E-02,2.155458E-02
7.794126E+01,-2.13019E-02,2.137311E-02
7.79746E+01,-2.094891E-02,2.119298E-02
7.800793E+01,-2.057876E-02,2.105992E-02
7.804127E+01,-2.025952E-02,2.107325E-02
7.807461E+01,-2.014715E-02,2.126831E-02
7.810794E+01,-2.022208E-02,2.158858E-02
7.814128E+01,-2.04291E-02,2.190275E-02
7.817462E+01,-2.073091E-02,2.216619E-02
7.820795E+01,-2.097339E-02,2.222686E-02
7.824129E+01,-2.112797E-02,2.202244E-02
7.827463E+01,-2.113656E-02,2.165263E-02
7.830796E+01,-2.100873E-02,2.124941E-02
7.83413E+01,-2.082493E-02,2.08861E-02
7.837464E+01,-2.069415E-02,2.071973E-02
7.840797E+01,-2.062449E-02,2.078163E-02
7.844131E+01,-2.065033E-02,2.106067E-02
7.847465E+01,-2.073826E-02,2.149741E-02
7.850798E+01,-2.084225E-02,2.196626E-02
7.854132E+01,-2.089216E-02,2.224528E-02
7.857466E+01,-2.081442E-02,2.231489E-02
7.860799E+01,-2.068721E-02,2.217002E-02
7.864133E+01,-2.054127E-02,2.18503E-02
7.867467E+01,-2.042912E-02,2.141091E-02
7.8708E+01,-2.042826E-02,2.105285E-02
7.874134E+01,-2.055993E-02,2.085406E-02
7.877468E+01,-2.08292E-02,2.089626E-02
7.880801E+01,-2.112876E-02,2.110029E-02
7.884135E+01,-2.135637E-02,2.143624E-02
7.887469E+01,-2.143763E-02,2.172275E-02
7.890803E+01,-2.129145E-02,2.19175E-02
7.894136E+01,-2.097775E-02,2.198466E-02
7.89747E+01,-2.057249E-02,2.185526E-02
7.900804E+01,-2.022601E-02,2.168042E-02
7.904137E+01,-2.000904E-02,2.14807E-02
7.907471E+01,-2.005076E-02,2.1346E-02
7.910805E+01,-2.031277E-02,2.130274E-02
7.914138E+01,-2.072968E-02,2.134161E-02
7.917472E+01,-2.116115E-02,2.14347E-02
7.920806E+01,-2.148227E-02,2.152616E-02
7.924139E+01,-2.158528E-02,2.153078E-02
7.927473E+01,-2.143295E-02,2.149458E-02
7.930807E+01,-2.107201E-02,2.138928E-02
7.93414E+01,-2.064574E-02,2.12961E-02
7.937474E+01,-2.02356E-02,2.126416E-02
7.940808E+01,-2.001673E-02,2.134198E-02
7.944141E+01,-2.002946E-02,2.152004E-02
7.947475E+01,-2.028493E-02,2.178262E-02
7.950809E+01,-2.061444E-02,2.19818E-02
7.954142E+01,-2.096514E-02,2.206274E-02
7.957476E+01,-2.121823E-02,2.199031E-02
7.96081E+01,-2.129791E-02,2.171937E-02
7.964143E+01,-2.120896E-02,2.13561E-02
7.967477E+01,-2.100501E-02,2.103894E-02
7.970811E+01,-2.074075E-02,2.082652E-02
7.974144E+01,-2.056096E-02,2.085564E-02
7.977478E+01,-2.047379E-02,2.110464E-02
7.980812E+01,-2.053441E-02,2.14785E-02
7.984145E+01,-2.067059E-02,2.188212E-02
7.987479E+01,-2.081879E-02,2.219404E-02
7.990813E+01,-2.089047E-02,2.233724E-02
7.994146E+01,-2.087395E-02,2.223381E-02
7.99748E+01,-2.07603E-02,2.188792E-02
8.000814E+01,-2.06371E-02,2.144816E-02
8.004147E+01,-2.055842E-02,2.103456E-02
8.007481E+01,-2.059749E-02,2.078296E-02
8.010815E+01,-2.069924E-02,2.074558E-02
8.014148E+01,-2.09029E-02,2.095973E-02
8.017482E+01,-2.108963E-02,2.131783E-02
8.020816E+01,-2.119288E-02,2.169319E-02
8.024149E+01,-2.114459E-02,2.197778E-02
8.027483E+01,-2.094693E-02,2.208522E-02
8.030817E+01,-2.065917E-02,2.2032E-02
8.03415E+01,-2.032231E-02,2.181778E-02
8.037484E+01,-2.009576E-02,2.154606E-02
8.040818E+01,-2.006576E-02,2.131093E-02
8.044151E+01,-2.024363E-02,2.118922E-02
8.047485E+01,-2.057988E-02,2.117053E-02
8.050819E+01,-2.100055E-02,2.129569E-02
8.054152E+01,-2.134704E-02,2.141811E-02
8.057486E+01,-2.151153E-02,2.156263E-02
8.06082E+01,-2.143981E-02,2.15889E-02
8.064153E+01,-2.113558E-02,2.155676E-02
8.067487E+01,-2.070524E-02,2.148302E-02
8.070821E+01,-2.029316E-02,2.144763E-02
8.074154E+01,-2.003728E-02,2.140034E-02
8.077488E+01,-2.000455E-02,2.146361E-02
8.080822E+01,-2.020531E-02,2.157116E-02
8.084156E+01,-2.054559E-02,2.173755E-02
8.087489E+01,-2.097286E-02,2.180854E-02
8.090823E+01,-2.130039E-02,2.180654E-02
8.094157E+01,-2.144326E-02,2.165754E-02
8.09749E+01,-2.135463E-02,2.143487E-02
8.100824E+01,-2.114844E-02,2.116397E-02
8.104158E+01,-2.084224E-02,2.097067E-02
8.107491E+01,-2.052944E-02,2.097181E-02
8.110825E+01,-2.038045E-02,2.111523E-02
8.114159E+01,-2.033094E-02,2.142526E-02
8.117492E+01,-2.046622E-02,2.178177E-02
8.120826E+01,-2.067774E-02,2.211313E-02
8.12416E+01,-2.087685E-02,2.228876E-02
8.127493E+01,-2.098175E-02,2.219922E-02
8.130827E+01,-2.099751E-02,2.194121E-02
8.134161E+01,-2.091491E-02,2.152829E-02
8.137494E+01,-2.074932E-02,2.112848E-02
8.140828E+01,-2.068035E-02,2.086092E-02
8.144162E+01,-2.068013E-02,2.078608E-02
8.147495E+01,-2.076558E-02,2.091611E-02
8.150829E+01,-2.087528E-02,2.124109E-02
8.154163E+01,-2.099649E-02,2.166594E-02
8.157496E+01,-2.102533E-02,2.2032E-02
8.16083E+01,-2.093019E-02,2.223261E-02
8.164164E+01,-2.072015E-02,2.221206E-02
8.167497E+01,-2.048684E-02,2.198635E-02
8.170831E+01,-2.030241E-02,2.164721E-02
8.174165E+01,-2.022993E-02,2.132516E-02
8.177498E+01,-2.032085E-02,2.110016E-02
8.180832E+01,-2.056886E-02,2.104207E-02
8.184166E+01,-2.091471E-02,2.113145E-02
8.187499E+01,-2.121395E-02,2.133258E-02
8.190833E+01,-2.140665E-02,2.153628E-02
